protein_id,f0,f1,f2,f3,f4,f5,f6,f7,f8,f9,f10,f11,f12,f13,f14,f15,f16,f17,f18,f19,f20,f21,f22,f23,f24,f25,f26,f27,f28,f29,f30,f31,f32,f33,f34,f35,f36,f37,f38,f39,f40,f41,f42,f43,f44,f45,f46,f47,f48,f49,f50,f51,f52,f53,f54,f55,f56,f57,f58,f59,f60,f61,f62,f63,f64,f65,f66,f67,f68,f69,f70,f71,f72,f73,f74,f75,f76,f77,f78,f79,f80,f81,f82,f83,f84,f85,f86,f87,f88,f89,f90,f91,f92,f93,f94,f95,f96,f97,f98,f99,f100,f101,f102,f103,f104,f105,f106,f107,f108,f109,f110,f111,f112,f113,f114,f115,f116,f117,f118,f119,f120,f121,f122,f123,f124,f125,f126,f127,f128,f129,f130,f131,f132,f133,f134,f135,f136,f137,f138,f139,f140,f141,f142,f143,f144,f145,f146,f147,f148,f149,f150,f151,f152,f153,f154,f155,f156,f157,f158,f159,f160,f161,f162,f163,f164,f165,f166,f167,f168,f169,f170,f171,f172,f173,f174,f175,f176,f177,f178,f179,f180,f181,f182,f183,f184,f185,f186,f187,f188,f189,f190,f191,f192,f193,f194,f195,f196,f197,f198,f199,f200,f201,f202,f203,f204,f205,f206,f207,f208,f209,f210,f211,f212,f213,f214,f215,f216,f217,f218,f219,f220,f221,f222,f223,f224,f225,f226,f227,f228,f229,f230,f231,f232,f233,f234,f235,f236,f237,f238,f239,f240,f241,f242,f243,f244,f245,f246,f247,f248,f249,f250,f251,f252,f253,f254,f255,f256,f257,f258,f259,f260,f261,f262,f263,f264,f265,f266,f267,f268,f269,f270,f271,f272,f273,f274,f275,f276,f277,f278,f279,f280,f281,f282,f283,f284,f285,f286,f287,f288,f289,f290,f291,f292,f293,f294,f295,f296,f297,f298,f299,f300,f301,f302,f303,f304,f305,f306,f307,f308,f309,f310,f311,f312,f313,f314,f315,f316,f317,f318,f319
seq78,0.05189013481140137,-0.05847141891717911,0.12085195630788803,-0.01602712646126747,0.30668750405311584,-0.2723028063774109,-0.05436365678906441,0.018126077950000763,0.10287103056907654,0.02079310640692711,0.1547441929578781,-0.02182547003030777,-0.16346637904644012,0.033934641629457474,0.12617655098438263,-0.2612273097038269,0.20186570286750793,-0.1803363561630249,-0.07083247601985931,0.1079876646399498,0.01782936230301857,-0.06383036822080612,-0.009734855964779854,-0.027734823524951935,-0.16651640832424164,0.07203289121389389,-0.09187107533216476,-0.10791411995887756,0.07539765536785126,0.34105563163757324,-0.37119871377944946,0.14382842183113098,0.055290721356868744,-0.12217242270708084,0.07258974760770798,-0.18736104667186737,0.17619726061820984,-0.11592496931552887,-0.13275250792503357,-0.03876446560025215,0.006344687193632126,-0.1478324830532074,0.22353702783584595,-0.06808749586343765,-0.015564625151455402,0.031777769327163696,-0.6278165578842163,0.014502415433526039,-0.0883287563920021,-0.11896494776010513,-0.10076970607042313,0.28178074955940247,-0.048518188297748566,0.1737043857574463,-0.07886344939470291,0.07413632422685623,0.24832825362682343,-0.23402942717075348,0.4059053063392639,-0.0025233279448002577,-0.004631856456398964,0.02281999960541725,-3.48453950881958,-0.15226486325263977,0.048261795192956924,-0.2082703411579132,-0.03675776347517967,0.4103754758834839,0.013341293670237064,-0.14106443524360657,-0.2516033351421356,0.14012016355991364,-0.10617519915103912,0.1508680135011673,-0.1763998121023178,-0.0799068734049797,0.28796857595443726,-0.11681000143289566,0.013705483637750149,-0.11478554457426071,0.020626889541745186,0.0015149853425100446,-0.0075337146408855915,-0.005932515021413565,0.0998380035161972,-0.06329157948493958,0.022761261090636253,0.17703700065612793,0.03831833600997925,0.10656934976577759,-0.1927020251750946,-0.04752151295542717,-0.0882757157087326,-0.03481537476181984,-0.19443579018115997,0.308074414730072,0.1257491409778595,-0.06627234071493149,0.1930503249168396,0.00887961033731699,0.1739799976348877,-0.17263779044151306,0.0817786380648613,-0.003295195521786809,-0.06861543655395508,-0.001211563590914011,-0.07897678017616272,0.025789834558963776,0.13179290294647217,0.16575616598129272,-0.13809411227703094,0.33878016471862793,0.13686326146125793,0.004185173194855452,-0.011777288280427456,-0.03652261197566986,0.12102968990802765,0.5379167199134827,-0.12861326336860657,0.27471405267715454,0.1617005616426468,0.35497230291366577,0.25278475880622864,0.16853570938110352,0.11480551213026047,-0.13962051272392273,-0.14502328634262085,-0.35567542910575867,-0.4126429557800293,0.004806475713849068,0.08367495983839035,0.05281652882695198,-0.28413400053977966,-0.23762238025665283,0.29798275232315063,0.1075875535607338,-0.09966541826725006,-0.0909729078412056,-0.07401753962039948,0.02525096759200096,0.19326892495155334,-0.08016956597566605,-0.038023609668016434,0.022121405228972435,-0.22078147530555725,-0.03784751892089844,-0.14611884951591492,0.30060094594955444,-0.17433877289295197,0.12243691086769104,0.0984380915760994,-0.21759645640850067,-0.2814801037311554,-0.07068733870983124,-0.17888104915618896,-0.06713636219501495,0.14210274815559387,0.10855283588171005,-0.05011005699634552,-0.025289276614785194,0.040715694427490234,-0.01153796911239624,0.008060303516685963,-0.14759917557239532,-0.13975198566913605,0.12303289026021957,-0.007407288532704115,-0.10573772341012955,-0.04674021899700165,0.06834915280342102,0.22209598124027252,-0.29460495710372925,0.1880950629711151,0.08520255982875824,0.002339278580620885,-0.0571364164352417,0.2675327658653259,-0.1774791032075882,0.14858251810073853,-0.15717439353466034,-0.08346402645111084,-0.26197636127471924,-0.11292806267738342,-0.0559563934803009,0.15236783027648926,-0.0634157583117485,-0.300201952457428,0.3716707229614258,-0.16632387042045593,-0.12792310118675232,0.087645024061203,0.0404774434864521,0.3611772656440735,-0.09941208362579346,0.26022958755493164,-0.14614559710025787,-0.21081914007663727,0.08479265123605728,0.13507841527462006,0.044325679540634155,0.10648892819881439,-0.01240954827517271,0.006096409168094397,-0.09720268845558167,-0.11670763045549393,-0.07980695366859436,-0.26043665409088135,0.11849597841501236,-0.128465473651886,-0.1191006600856781,-0.012893255800008774,-0.17334628105163574,0.011869393289089203,0.06919767707586288,0.07445035129785538,0.06710296124219894,0.0729346051812172,-0.12302599847316742,-0.05744536221027374,-0.05795099586248398,-0.11438148468732834,0.007048390805721283,0.10039238631725311,0.08111215382814407,0.044013191014528275,-0.15922316908836365,-0.11986000835895538,-0.1180446669459343,-0.00911334902048111,-0.18459641933441162,-0.18788409233093262,0.052186015993356705,0.23721414804458618,-0.08360090851783752,0.05158105492591858,0.131220281124115,-0.026229409500956535,0.0010028568794950843,0.048984937369823456,-0.12284747511148453,-0.07386232167482376,-0.20372484624385834,-0.005503550171852112,0.2369576096534729,0.042101241648197174,-0.014582614414393902,0.037397585809230804,-0.15685002505779266,0.04841335490345955,-0.10469794273376465,-0.3203243911266327,-0.1316843181848526,0.00794168096035719,-0.2470911294221878,-0.03462480381131172,-0.05695474520325661,0.2541700601577759,-0.04056892544031143,0.05919726565480232,0.04977000132203102,0.23312240839004517,0.06674478948116302,-0.06051058694720268,-0.09543115645647049,0.18898481130599976,-0.03511063754558563,-0.2245706468820572,-0.04205334186553955,0.19769439101219177,-0.021697452291846275,0.13076241314411163,-0.007296795956790447,0.23398807644844055,0.25651419162750244,0.009722601622343063,-0.01993299461901188,0.09069184958934784,0.056633006781339645,-0.041232623159885406,-0.10342838615179062,-0.15167377889156342,-0.015269552357494831,0.23075111210346222,-0.024798352271318436,0.10978563129901886,0.06533700227737427,-0.10635115206241608,0.18753023445606232,0.014362986199557781,-0.008688836358487606,0.004542290233075619,-0.1117919459939003,-0.01421563420444727,-0.037696029990911484,0.04515381529927254,-0.018365293741226196,-0.16821470856666565,0.22997024655342102,-0.35507678985595703,-0.05249645560979843,-0.17065253853797913,-0.14701618254184723,0.18707983195781708,0.199472114443779,-0.11102622002363205,-0.01328514888882637,-0.022514665499329567,-0.2554752230644226,0.026993723586201668,0.027208419516682625,0.004830561112612486,-0.01939876191318035,-0.07246839255094528,0.24449670314788818,-0.09076733887195587,0.08912006765604019,0.10061401128768921,0.5242813229560852,-0.13978515565395355,0.019252177327871323
seq192,0.021030865609645844,-0.15671508014202118,0.01186745148152113,0.1729220151901245,0.19760872423648834,-0.18174470961093903,-0.07902751863002777,0.0009269420988857746,0.11324930191040039,-0.10022008419036865,0.02234036847949028,-0.017274733632802963,-0.22735826671123505,0.15275537967681885,0.07789388298988342,-0.179237499833107,0.0824892669916153,-0.12122213840484619,0.03214574232697487,0.0742412656545639,-0.0035854517482221127,-0.031094739213585854,-0.01830332539975643,-0.005083652678877115,-0.04011061415076256,0.09958037734031677,0.1128782331943512,0.025410156697034836,0.01325790025293827,0.16944915056228638,-0.24104174971580505,0.10219509899616241,0.13466425240039825,-0.17317645251750946,0.09270691126585007,-0.13543765246868134,0.06422941386699677,0.04084223136305809,0.15545983612537384,0.018397558480501175,0.14406178891658783,0.07683302462100983,0.00036879230174236,-0.03289183974266052,-0.0065010106191039085,0.20316007733345032,-1.061273455619812,0.03330085054039955,-0.11782711744308472,-0.19693134725093842,-0.06373044848442078,0.1399213671684265,0.11016382277011871,0.08843360841274261,-0.07379744946956635,-0.10539230704307556,0.18003340065479279,-0.02318636327981949,0.31631991267204285,-0.01817072555422783,-9.918981959344819e-05,0.04801511391997337,-4.718705177307129,-0.14390189945697784,-0.005753679201006889,-0.005421171430498362,-0.033931914716959,0.33124709129333496,-0.02360762655735016,0.025923574343323708,-0.13273292779922485,0.0895974189043045,-0.06574846804141998,0.24149122834205627,-0.20361171662807465,-0.03611296787858009,0.12985269725322723,-0.1439496874809265,-0.07746735960245132,0.05875050649046898,0.09103039652109146,0.01073188055306673,0.012856067158281803,-0.09141871333122253,0.017982281744480133,-0.11070539057254791,0.14997011423110962,0.005536346230655909,0.004095574375241995,0.05138908326625824,-0.21509484946727753,-0.026997927576303482,-0.02426065504550934,0.1265445202589035,-0.0040771085768938065,0.2925826907157898,0.0549369752407074,0.023341495543718338,0.06621972471475601,-0.13595439493656158,0.11014758050441742,-0.02752332016825676,-0.04465588182210922,0.07922127097845078,0.02238008752465248,0.07663249224424362,-0.08733898401260376,0.09771496057510376,-0.006082175299525261,0.009458555839955807,-0.02172580175101757,0.2605115473270416,0.08653286844491959,-0.015157476998865604,0.055139005184173584,0.07704520225524902,0.046540871262550354,0.34874704480171204,-0.14798025786876678,0.2247551828622818,0.026403862982988358,0.2303282916545868,0.3250074088573456,0.14441584050655365,0.13739095628261566,-0.16124467551708221,-0.15650832653045654,-0.24697020649909973,-0.17940054833889008,0.05792494863271713,0.08184730261564255,-0.015410124324262142,-0.25644972920417786,0.03755934163928032,0.25236615538597107,-0.09866763651371002,-0.11599746346473694,-0.13691547513008118,0.03317566215991974,-0.14752015471458435,0.10819286108016968,-0.033860109746456146,-0.04478853568434715,0.07354196161031723,-0.0543212816119194,-0.0499444343149662,-0.06697008013725281,0.17270797491073608,-0.06650946289300919,0.16390235722064972,0.15101473033428192,-0.21832962334156036,-0.23512490093708038,-0.12429394572973251,-0.23973838984966278,-0.07253841310739517,0.05804240331053734,0.11845565587282181,-0.059181202203035355,0.025859039276838303,-0.046176835894584656,-0.0022386035416275263,0.029834669083356857,-0.03436516225337982,-0.055417973548173904,0.11448201537132263,0.08818185329437256,-0.22894340753555298,0.038765039294958115,-0.011533960700035095,0.013256733305752277,-0.149736225605011,0.10619287192821503,0.025597961619496346,-0.004397042561322451,0.112551748752594,0.26190122961997986,0.008705086074769497,-0.022713184356689453,-0.17819148302078247,0.026117030531167984,-0.1946215182542801,0.031470756977796555,-0.02451200783252716,0.03178763762116432,-0.052961770445108414,-0.1646968424320221,0.20089992880821228,-0.004377744160592556,-0.24396947026252747,0.05941426753997803,-0.00035405525704845786,0.2439388632774353,0.03265944495797157,0.17242097854614258,-0.007381141185760498,-0.1510414481163025,0.07946285605430603,0.20628361403942108,0.22242598235607147,-0.004131909925490618,0.1221347376704216,0.09138994663953781,0.02889612503349781,-0.12277261167764664,-0.07183848321437836,-0.12669770419597626,0.033169303089380264,-0.008801432326436043,-0.089850515127182,0.005655590910464525,-0.16839651763439178,-0.0810956284403801,0.03348131850361824,0.0711633488535881,0.11237853020429611,-0.03118191659450531,-0.09520969539880753,0.03867844119668007,-0.03839896246790886,-0.15100540220737457,0.04285820201039314,0.2101612687110901,0.032034821808338165,-0.008724265731871128,-0.05248861387372017,-0.13185057044029236,0.011624480597674847,0.05809873342514038,-0.019778182730078697,0.006762429140508175,0.1863684058189392,0.14144867658615112,-0.14661720395088196,0.042672622948884964,-0.05797221139073372,0.03511868417263031,-0.045496128499507904,0.005173908546566963,0.015621280297636986,-0.13554686307907104,-0.20700113475322723,-0.012970718555152416,0.10739289224147797,0.12316053360700607,-0.02371562272310257,0.09474088996648788,-0.06271454691886902,0.02403469942510128,-0.23144415020942688,-0.10528581589460373,-0.09249149262905121,-0.012465591542422771,0.03103160485625267,-0.038201335817575455,0.06657494604587555,0.060651201754808426,-0.04821249470114708,0.09786476939916611,-0.03178974986076355,0.1102420911192894,-0.017000114545226097,-0.09842406958341599,-0.05570894852280617,0.08496002107858658,0.1317569613456726,-0.18781821429729462,-0.10166671872138977,0.11975541710853577,-0.041852738708257675,0.1302572637796402,-0.036753054708242416,0.041820038110017776,0.18183176219463348,-0.03377806395292282,0.029564842581748962,0.046013519167900085,0.09927476942539215,-0.0770442932844162,-0.008271176367998123,-0.12058552354574203,-0.048023711889982224,0.2827398478984833,-0.14382293820381165,0.330899715423584,0.251426100730896,-0.01229080930352211,-0.03145555034279823,-0.05073677748441696,-0.10906056314706802,-0.11141419410705566,-0.07605104893445969,-0.026095185428857803,0.027762416750192642,-0.03579828888177872,0.003600459545850754,-0.11524511128664017,0.16896583139896393,-0.3108898103237152,0.08195526152849197,-0.19689396023750305,-0.017831899225711823,0.07670382410287857,0.16218161582946777,0.0030890966299921274,-0.07434681057929993,-0.11694534122943878,-0.11938726156949997,0.10013272613286972,-0.09349142760038376,0.0006517370929941535,0.03313338756561279,-0.004554335959255695,0.1405790001153946,0.12175634503364563,-0.05450735241174698,0.06760922074317932,0.35589399933815,-0.07077743113040924,0.004359404556453228
seq156,-0.08151424676179886,-0.0655335783958435,0.1931157112121582,-0.015923429280519485,0.3619672656059265,-0.276166707277298,-0.0283308494836092,0.012687526643276215,-0.05330416560173035,0.18048498034477234,0.19200249016284943,-0.012121452018618584,-0.14147251844406128,-0.04143545776605606,0.16085928678512573,-0.34626153111457825,0.2455115169286728,-0.213547945022583,-0.11742968112230301,0.08722620457410812,0.012933820486068726,-0.15830115973949432,-0.0870317593216896,-0.031053442507982254,-0.15690124034881592,-0.050448570400476456,-0.2901470363140106,-0.0572066567838192,0.11024554073810577,0.2104472666978836,-0.262114554643631,0.3521268367767334,0.0913722887635231,-0.03800119087100029,0.04077707603573799,-0.22407229244709015,0.02005787007510662,-0.2110336571931839,-0.1314857006072998,-0.03276089206337929,0.14593814313411713,-0.1353849619626999,-0.13779115676879883,0.046395592391490936,-0.09867323935031891,0.18006835877895355,-0.6310136914253235,0.09157943725585938,-0.23712195456027985,0.028474677354097366,-0.2326255738735199,0.22869433462619781,0.08985062688589096,0.08642228692770004,0.055479470640420914,0.006392415147274733,0.37452512979507446,-0.20915892720222473,0.45507577061653137,-0.012803849764168262,-0.1290263831615448,-0.09659462422132492,-3.106722116470337,0.015019036829471588,0.2165733277797699,-0.12312870472669601,0.05176117271184921,0.21713970601558685,-0.0006011048681102693,-0.09268821775913239,0.027118315920233727,0.052403319627046585,-0.1452392190694809,0.08731383830308914,-0.05378355458378792,-0.025552554056048393,0.20508408546447754,0.030891142785549164,-0.08038579672574997,-0.0753772109746933,0.011209005489945412,0.06739628314971924,0.026307156309485435,-0.10097292810678482,0.17219872772693634,0.04680643975734711,0.021181032061576843,0.08308769017457962,0.1238405704498291,0.4049205183982849,-0.018177317455410957,-0.12653163075447083,0.06418439745903015,0.022908534854650497,-0.2144451141357422,0.11430124938488007,0.004402240738272667,-0.08374597132205963,0.2120184451341629,0.25989970564842224,0.40006735920906067,-0.13843552768230438,0.20148280262947083,0.14458785951137543,-0.0690803974866867,0.017841771245002747,0.04934819042682648,0.12035812437534332,0.010764002799987793,0.14642052352428436,-0.17348478734493256,0.20048265159130096,0.196865975856781,-0.11288819462060928,-0.05449241027235985,-0.04116934910416603,0.05424034222960472,0.45068126916885376,-0.006719116121530533,0.2284746766090393,0.14892883598804474,0.4656863808631897,-0.02227071486413479,0.006049244664609432,0.10782325267791748,0.002708648331463337,-0.1667466014623642,-0.06361371278762817,-0.16985318064689636,-0.01873568259179592,-0.1507013589143753,0.07922012358903885,-0.2894587218761444,-0.269566148519516,0.22400063276290894,0.1662694811820984,-0.054895687848329544,-0.15442955493927002,-0.1881626397371292,0.0345352366566658,0.11168938875198364,-0.12826193869113922,0.027846701443195343,0.11908628046512604,0.019901810213923454,0.07674547284841537,0.008843382820487022,0.17744404077529907,-0.025394730269908905,-0.037659041583538055,0.1579039990901947,-0.2799493372440338,-0.25755470991134644,-0.12100370973348618,-0.282910019159317,0.05160224065184593,0.10620137304067612,0.3083092272281647,-0.16395579278469086,-0.03844837844371796,0.15094836056232452,0.007504250854253769,0.13128843903541565,-0.08157038688659668,0.00033637750311754644,0.14392659068107605,0.003035839879885316,-0.2446894496679306,-0.32865971326828003,0.10611048340797424,-0.018380822613835335,0.025055505335330963,0.23609453439712524,0.012548520229756832,-0.003909338731318712,-0.016675403341650963,-0.05716617405414581,-0.23244918882846832,0.11193525046110153,-0.2105507254600525,-0.10075156390666962,-0.10425252467393875,0.08091555535793304,0.05853389576077461,0.04145417734980583,-0.022941339761018753,-0.21637505292892456,0.31298133730888367,-0.15057021379470825,-0.05984119698405266,0.11558324098587036,0.21766360104084015,0.11327331513166428,-0.09873465448617935,0.12686371803283691,-0.06445185095071793,-0.1578514277935028,0.14486108720302582,0.03645982965826988,0.05370349809527397,-0.00598990498110652,0.0033420694526284933,0.010667557828128338,-0.2123929262161255,-0.18573199212551117,-0.00036333317984826863,-0.11520867049694061,0.013922722078859806,-0.19555258750915527,-0.10791502892971039,-0.07259862124919891,-0.10133674740791321,-0.012540698051452637,0.24196591973304749,0.05545121058821678,-0.1916380077600479,-0.049328774213790894,-0.06204121932387352,-0.011657352559268475,-0.012383883818984032,-0.1782023161649704,-0.004982019774615765,-0.08481192588806152,-0.009624693542718887,0.0655144602060318,-0.25458645820617676,0.011569620110094547,0.03577509894967079,0.007698753383010626,-0.1535133421421051,-0.13232432305812836,-0.012656912207603455,0.13159456849098206,0.010745919309556484,-0.15127280354499817,0.0283475611358881,-0.020841624587774277,-0.021896392107009888,-0.028617046773433685,-0.08768532425165176,0.07885801792144775,-0.02064165100455284,0.09723766893148422,0.06039997562766075,0.06949079036712646,-0.1434870809316635,0.04677562415599823,-0.0822911411523819,0.024113627150654793,-0.05689871311187744,-0.2765238881111145,-0.14929719269275665,-0.11434493958950043,-0.17593514919281006,0.06344269961118698,-0.16402269899845123,0.018484527245163918,-0.16868717968463898,0.19670076668262482,-0.280377596616745,0.07702254503965378,0.039181843400001526,-0.00969354622066021,-0.13462762534618378,0.04129527509212494,0.051388245075941086,-0.23667986690998077,-0.19919459521770477,0.2416495531797409,-0.039575666189193726,0.20111460983753204,0.06120256334543228,0.10654889792203903,0.03910748288035393,0.229269877076149,0.05082032084465027,0.2955973446369171,-0.03886796161532402,0.11241444200277328,-0.16228798031806946,-0.2060481607913971,-0.25602805614471436,0.18670620024204254,-0.11876578629016876,-0.10580401122570038,0.07945645600557327,-0.1117887869477272,0.17123137414455414,-0.05392639711499214,-0.15035641193389893,-0.07089076936244965,-0.17393065989017487,0.024300716817378998,-0.008391656912863255,0.1248294785618782,-0.19846469163894653,-0.00013747691991738975,-0.03277046978473663,-0.2748694121837616,-0.1246701180934906,-0.12433566153049469,-0.050779227167367935,0.33461105823516846,0.1491844356060028,-0.12493430823087692,-0.037460096180438995,-0.03976884484291077,-0.17653021216392517,0.1024312973022461,-0.1343507170677185,0.1388925164937973,0.11243964731693268,-0.12378783524036407,0.2797854542732239,-0.04822630062699318,0.05740523710846901,0.018534353002905846,0.4179812967777252,-0.0020739310421049595,0.08162980526685715
seq70,0.07780098170042038,-0.05700111389160156,0.13403914868831635,-0.043119486421346664,0.24379411339759827,-0.2919422686100006,-0.051736097782850266,-0.016365107148885727,0.20423658192157745,-0.00854865089058876,0.03277446702122688,-0.07124336808919907,-0.10049434751272202,0.06485433131456375,0.14506468176841736,-0.2705833315849304,0.15426447987556458,-0.14802084863185883,-0.0446733757853508,0.1134038046002388,-0.03868460655212402,-0.060947004705667496,-0.07036285847425461,0.02598174661397934,-0.22020183503627777,0.038481030613183975,-0.18201954662799835,-0.11582743376493454,0.056555453687906265,0.4714867174625397,-0.4281691908836365,0.006226487923413515,0.11657878756523132,-0.12774205207824707,0.09226147085428238,-0.2150764763355255,0.11587447673082352,-0.2057236284017563,-0.14651307463645935,0.002665008418262005,-0.04140426591038704,-0.10429665446281433,0.1840226799249649,-0.0464414581656456,-0.009005064144730568,0.028901921585202217,-0.6188357472419739,-0.041903458535671234,-0.056434266269207,-0.1768469512462616,0.013164252042770386,0.2446344494819641,-0.04500127211213112,0.1622612178325653,-0.10390253365039825,0.16536100208759308,0.2171057164669037,-0.21938294172286987,0.4081721007823944,0.04922206699848175,-0.07127879559993744,0.09149325639009476,-3.652524471282959,-0.16105176508426666,0.047536615282297134,-0.20907916128635406,0.045872703194618225,0.38975289463996887,0.16548696160316467,-0.0054450747556984425,-0.2338605672121048,0.10090263187885284,-0.09549566358327866,0.17127953469753265,-0.20422443747520447,-0.04347751662135124,0.2520085275173187,-0.036748047918081284,0.022962946444749832,-0.08276664465665817,-0.00494800042361021,-0.010988428257405758,-0.042546000331640244,-0.062195830047130585,0.02066570520401001,-0.08355191349983215,0.07268409430980682,0.13116835057735443,0.10916770249605179,0.02505924180150032,-0.1829787790775299,-0.007113919593393803,-0.023522593080997467,-0.026244819164276123,-0.12347634136676788,0.2725856602191925,0.1479632556438446,-0.07826550304889679,0.16203641891479492,0.0303383506834507,0.15318681299686432,-0.19267794489860535,-0.022914517670869827,-0.10002310574054718,0.06476420909166336,-0.05970192700624466,-0.13239146769046783,-0.043494466692209244,0.15606307983398438,0.05967569351196289,-0.15459229052066803,0.4470190703868866,0.1661691963672638,-0.05961082503199577,0.07022774964570999,0.07924016565084457,0.11021275073289871,0.5604533553123474,-0.156138077378273,0.258256196975708,0.14896610379219055,0.35896772146224976,0.2286095917224884,0.20716652274131775,0.09953456372022629,-0.1227908581495285,-0.11149290204048157,-0.3599320650100708,-0.479387104511261,-0.09792212396860123,0.16303642094135284,0.04648565873503685,-0.32789552211761475,-0.22482861578464508,0.41430404782295227,0.14144447445869446,-0.07127538323402405,-0.06476741284132004,-0.09438076615333557,0.11291371285915375,0.26960957050323486,-0.1352306306362152,-0.03013821505010128,-0.003329870756715536,-0.25086450576782227,-0.0868380069732666,-0.0958452969789505,0.40197718143463135,-0.2876039743423462,0.17467595636844635,0.07756220549345016,-0.22234585881233215,-0.40788647532463074,-0.003305921796709299,-0.09376715868711472,-0.08386500179767609,0.13809698820114136,0.07487552613019943,-0.04781564697623253,0.050572317093610764,0.07742562890052795,0.023279087617993355,-0.03243314474821091,-0.25555741786956787,-0.14009040594100952,0.19908493757247925,-0.0283404178917408,-0.1268126368522644,0.0698515847325325,0.05330377444624901,0.09585917741060257,-0.2499026209115982,0.09200472384691238,0.040204279124736786,0.0684751346707344,-0.009657942689955235,0.23533494770526886,-0.10911694169044495,0.19970323145389557,-0.10887085646390915,-0.0652596578001976,-0.24770785868167877,-0.2198595106601715,-0.09137862175703049,0.14098940789699554,-0.06469070166349411,-0.2368692010641098,0.37404924631118774,-0.14816543459892273,-0.09363273531198502,0.08389503508806229,0.06933464109897614,0.22825010120868683,-0.18840323388576508,0.266825795173645,-0.03931897506117821,-0.14760468900203705,0.07437396049499512,0.142793208360672,0.05039343610405922,0.09807556122541428,0.0001582067779963836,0.06259214133024216,-0.026101727038621902,-0.1434759497642517,-0.13972169160842896,-0.229071244597435,0.017856307327747345,-0.1672779619693756,-0.16308671236038208,-0.03284100443124771,-0.20445606112480164,0.019300075247883797,0.06404466181993484,0.17136730253696442,-0.02732980251312256,0.07798412442207336,-0.19964450597763062,-0.07264625281095505,0.012252221815288067,-0.09671752154827118,0.007779334671795368,0.18185783922672272,0.005652035586535931,0.006007832009345293,-0.07757379114627838,-0.023335156962275505,-0.0951218232512474,-0.023801276460289955,-0.2813551723957062,-0.19080376625061035,0.08172614127397537,0.3334832191467285,-0.19848720729351044,0.044549450278282166,0.065689817070961,0.11522503942251205,-0.0003511022950988263,0.04311363026499748,-0.19708505272865295,-0.08993299305438995,-0.172280952334404,-0.05640806630253792,0.17104753851890564,0.13861605525016785,-0.03302324563264847,-0.01805979758501053,-0.08927089720964432,0.08622488379478455,-0.11706319451332092,-0.2157309204339981,-0.09433896839618683,-0.000144572215504013,-0.32287657260894775,-0.12424696236848831,-0.06420955061912537,0.23517650365829468,-0.00045076929382048547,0.04744097962975502,0.0790620744228363,0.2545957863330841,0.1034543514251709,-0.0109650744125247,-0.10021425038576126,0.18783317506313324,-0.02181224711239338,-0.21650783717632294,0.0004465992678888142,0.24705146253108978,-0.023507606238126755,0.09156668931245804,-0.017974041402339935,0.1836940199136734,0.2514787018299103,0.00958787277340889,-0.02652556635439396,0.22388601303100586,0.044298116117715836,-0.05230570584535599,-0.01634986884891987,-0.22509299218654633,0.0014306639786809683,0.19243603944778442,-0.034869518131017685,0.23261848092079163,0.0030814604833722115,-0.05249517783522606,0.1060376912355423,-0.03922734037041664,0.05622411146759987,0.021250944584608078,-0.06067166104912758,-0.024401964619755745,0.01617377996444702,0.08732188493013382,0.030585141852498055,-0.22943957149982452,0.10283517092466354,-0.32651427388191223,-0.1053229495882988,-0.19111299514770508,-0.08968964219093323,0.2633489966392517,0.21155402064323425,-0.13093413412570953,-0.08119224011898041,-0.02484656311571598,-0.3477894067764282,-0.04009757563471794,0.021212927997112274,-0.03515944629907608,0.04544714465737343,-0.022246379405260086,0.2472977638244629,-0.04978736490011215,0.07810484617948532,0.06696197390556335,0.5308861136436462,-0.1663743108510971,0.02117607742547989
seq55,-0.08620713651180267,-0.12532879412174225,0.05547642335295677,0.09168630093336105,0.17566978931427002,-0.2523704171180725,-0.05207114294171333,0.03293399512767792,-0.12940114736557007,0.09624133259057999,0.08879556506872177,-0.031189095228910446,-0.2678753137588501,0.025034643709659576,0.18328329920768738,-0.11771434545516968,0.05167977884411812,-0.15689289569854736,-0.12319778650999069,0.10890112817287445,0.02786971442401409,-0.13719332218170166,-0.0816621482372284,0.012305321171879768,-0.02261475846171379,-0.09904195368289948,-0.007610335014760494,0.06670509278774261,0.14405034482479095,0.03504037857055664,-0.2979592978954315,0.3633400797843933,0.16717782616615295,-0.19190596044063568,0.03110371343791485,-0.2543123960494995,0.09347239881753922,0.11213058233261108,0.2307603508234024,-0.011032462120056152,0.2825852036476135,0.0809243693947792,-0.18289856612682343,-0.09754476696252823,-0.12412354350090027,0.4441169798374176,-0.8502762317657471,-0.017393214628100395,-0.12407781183719635,-0.1296357661485672,-0.18731123208999634,0.15612854063510895,0.0039702788926661015,-0.03503228351473808,-0.049616243690252304,-0.12266199290752411,0.23549506068229675,-0.04179762676358223,0.31917881965637207,0.04083859175443649,0.08479227125644684,0.06011132895946503,-4.078667163848877,-0.11269628256559372,0.01663987711071968,-0.08358535170555115,-0.0642026960849762,0.2888338267803192,-0.10488718748092651,-0.020602727308869362,-0.1884385496377945,0.09999007731676102,0.08258016407489777,0.19981881976127625,-0.08739975094795227,-0.062111493200063705,0.14169687032699585,-0.03842185437679291,-0.2243167906999588,0.120287224650383,0.15560950338840485,0.001826058141887188,0.047891829162836075,-0.11640464514493942,0.1326410472393036,-0.0037495000287890434,0.2002691626548767,-0.02378946729004383,0.031129343435168266,0.07353535294532776,-0.18918296694755554,-0.2660842835903168,0.00015519277076236904,0.11797556281089783,-0.06593291461467743,0.21490980684757233,-0.016880184412002563,-0.07922238111495972,0.1314210742712021,-0.06666840612888336,0.3306204676628113,0.10950835794210434,0.1959030032157898,0.08051642775535583,-0.0013018179452046752,0.14929687976837158,0.04363676905632019,0.10663817822933197,-0.08353009819984436,0.14135418832302094,-0.0006245138356462121,0.20438316464424133,0.021106015890836716,-0.09087461978197098,-0.03609076514840126,0.0503721758723259,0.02058284357190132,0.3537701368331909,-0.012475800700485706,0.21294403076171875,0.002729753963649273,0.3158433735370636,0.1962646245956421,-0.006234734319150448,0.021829109638929367,-0.2829582393169403,-0.1753925085067749,-0.15915554761886597,-0.056182440370321274,0.11201822012662888,-0.009987285360693932,0.06556989997625351,-0.19388626515865326,-0.01902429200708866,0.3771398663520813,-0.2820466160774231,0.0213149506598711,-0.23673832416534424,-0.047445327043533325,-0.14136014878749847,-0.005828918889164925,0.03886494040489197,-0.1265806257724762,0.24468187987804413,0.051493071019649506,0.07511650770902634,-0.013295204378664494,0.13666969537734985,-0.017628097906708717,0.005356081761419773,0.2687457203865051,-0.12096229195594788,-0.1729101985692978,-0.08711176365613937,-0.33983105421066284,-0.048768799751996994,0.051777683198451996,0.11753495782613754,-0.21643128991127014,-0.11603676527738571,0.0432274229824543,-0.04679705947637558,0.12380582094192505,-0.10591822117567062,-0.0767078846693039,0.10915989428758621,0.09471780061721802,-0.2871660888195038,-0.06669896841049194,-0.10822766274213791,0.005571114830672741,-0.05400539189577103,0.2155679166316986,0.10480047762393951,-0.12848889827728271,0.005227263085544109,0.162007138133049,-0.13055185973644257,-0.0653209239244461,-0.24788588285446167,-0.20124214887619019,-0.07602013647556305,0.029437093064188957,0.15696825087070465,0.011651240289211273,-0.04670051112771034,-0.12291256338357925,0.21745766699314117,-0.16520856320858002,-0.1945226788520813,0.02055433765053749,0.17641402781009674,0.08283372223377228,0.16790680587291718,0.18363410234451294,0.00038056884659454226,-0.0677681639790535,0.11364403367042542,0.18453849852085114,0.2906367778778076,0.0827760398387909,0.0650465190410614,0.07544340193271637,-0.035726312547922134,-0.21134696900844574,0.0024223122745752335,-0.15193729102611542,0.057655904442071915,-0.0601794496178627,-0.04269547387957573,0.11467890441417694,-0.0817495808005333,-0.061356429010629654,0.008689275942742825,0.11049283295869827,0.03531065583229065,0.0960787832736969,-0.11944645643234253,0.1995552033185959,-0.01531826239079237,-0.22665828466415405,0.0012838203692808747,0.17430752515792847,-0.10541845858097076,-0.09114638715982437,-0.21655888855457306,-0.0957532599568367,0.09472724795341492,0.10893853008747101,0.04460904374718666,0.0018069836078211665,0.08591074496507645,0.050265368074178696,-0.15467482805252075,-0.20004969835281372,-0.09969566762447357,-0.10560565441846848,-0.07520619034767151,0.009496103040874004,0.014300230890512466,-0.09376680105924606,-0.16630743443965912,0.09879416227340698,0.008242218755185604,0.1072191596031189,-0.273890882730484,0.21110936999320984,-0.14816805720329285,0.08862151950597763,-0.2208932638168335,-0.13886749744415283,-0.2556118667125702,-0.1603114902973175,0.06328251957893372,-0.011005271226167679,0.08215881884098053,-0.07046584784984589,-0.12518899142742157,0.285503089427948,-0.07878110557794571,0.055103205144405365,0.007809265051037073,-0.09788921475410461,-0.15483681857585907,0.04507243633270264,0.11525824666023254,-0.19435520470142365,-0.4053151309490204,0.09575352072715759,-0.19084158539772034,0.15693600475788116,-0.05878796800971031,0.05437422916293144,0.19983169436454773,0.16587014496326447,0.004630617331713438,0.058872196823358536,-0.13822025060653687,-0.04621253162622452,-0.037630051374435425,0.0005815702024847269,-0.08663033694028854,0.2555274963378906,-0.10411370545625687,0.14649604260921478,0.3834380805492401,0.044925373047590256,0.06481326371431351,0.055047497153282166,-0.24628375470638275,-0.02840764820575714,-0.18594008684158325,-0.02633805200457573,0.0728803351521492,0.12335368990898132,0.046287719160318375,0.028957339003682137,0.18133686482906342,-0.17135043442249298,0.021828724071383476,-0.1842014342546463,0.0200321227312088,0.2171153575181961,0.16492947936058044,0.1124429702758789,-0.023389402776956558,-0.10012198239564896,-0.1208888590335846,0.1916736364364624,-0.19339735805988312,0.019076840952038765,-0.03042669966816902,-0.05469784140586853,0.17950932681560516,0.12480279803276062,-0.04152119159698486,-0.12571510672569275,0.3533420264720917,0.20199015736579895,0.014646904543042183
seq39,0.1504347026348114,-0.015791824087500572,0.12098086625337601,0.06503705680370331,0.40253815054893494,-0.25194051861763,-0.18279185891151428,-0.009348979219794273,0.23363232612609863,-0.03912163898348808,0.027971450239419937,-0.07497209310531616,-0.1961202472448349,0.03491882234811783,0.0479603074491024,-0.22056688368320465,0.13046443462371826,-0.16046716272830963,-0.09960115700960159,0.12378168851137161,0.08870606124401093,-0.08547601103782654,-0.03679170832037926,0.001388064818456769,-0.1856248378753662,0.11484283208847046,-0.15898002684116364,-0.11166313290596008,0.05162448063492775,0.2714603543281555,-0.36106643080711365,0.24236401915550232,0.09282006323337555,0.041881270706653595,0.14753170311450958,-0.16200578212738037,0.06411442160606384,-0.20941849052906036,-0.14531326293945312,-0.04845466837286949,0.011604157276451588,-0.1297781616449356,0.18589675426483154,-0.0043188221752643585,-0.05839486047625542,0.046279024332761765,-0.7981638312339783,-0.02809554897248745,-0.16144445538520813,-0.09672358632087708,-0.04711834341287613,0.3302202522754669,0.08571174740791321,0.037354543805122375,-0.09344003349542618,0.06151030212640762,0.2871358096599579,-0.14133571088314056,0.36308369040489197,0.08836105465888977,-0.059046704322099686,-0.11915232986211777,-3.772625684738159,-0.24042119085788727,0.10067537426948547,-0.14141803979873657,0.02857331931591034,0.46383917331695557,0.087397500872612,-0.07914220541715622,-0.1507745087146759,0.1751270592212677,-0.01797393336892128,0.16454222798347473,-0.19506512582302094,-0.09714117646217346,0.3110453188419342,-0.10415753722190857,0.038587138056755066,-0.09597792476415634,0.0829671248793602,0.012590354308485985,0.020874356850981712,-0.08614654839038849,0.05892593041062355,-0.032574452459812164,0.041241053491830826,0.09639661014080048,0.08609005808830261,0.12077537178993225,-0.19398902356624603,-0.019700461998581886,0.023824797943234444,0.004393153823912144,-0.12705545127391815,0.23530890047550201,0.10182671993970871,-0.06482609361410141,0.19283603131771088,-0.05654667690396309,0.19054226577281952,-0.1826285719871521,0.08054360747337341,-0.02676893211901188,-0.05693388357758522,-0.12220465391874313,-0.07607760280370712,0.1910482496023178,0.044613394886255264,0.1580471396446228,-0.14543697237968445,0.36932194232940674,0.22078858315944672,0.060965050011873245,-0.09782666712999344,-0.10531745105981827,0.19735915958881378,0.5269830822944641,-0.15614721179008484,0.22159849107265472,0.07961922883987427,0.34127601981163025,0.1989133059978485,0.21196557581424713,0.26309680938720703,-0.07352884113788605,-0.14263314008712769,-0.27700334787368774,-0.45596015453338623,0.03241530805826187,0.18414805829524994,0.039387740194797516,-0.28635522723197937,-0.2882051467895508,0.29640457034111023,0.012638803571462631,-0.15836550295352936,0.0014738960890099406,-0.11477305740118027,0.0559762604534626,0.23155827820301056,-0.10190783441066742,0.0021553277038037777,-0.021783068776130676,-0.08830024302005768,-0.12458103150129318,-0.041680850088596344,0.23080089688301086,-0.09744652360677719,0.1927206814289093,0.1403411477804184,-0.2386706918478012,-0.28318727016448975,-0.08076240122318268,-0.1562877595424652,-0.12113593518733978,0.038839057087898254,0.14831754565238953,-0.12770843505859375,-0.017037581652402878,0.0669887512922287,-0.027386438101530075,0.025220360606908798,-0.1506635546684265,-0.002521514892578125,0.17785586416721344,0.08518580347299576,-0.05040543153882027,0.008007675409317017,0.1181095689535141,-0.05533546954393387,-0.3120739161968231,0.19489562511444092,0.10334478318691254,-0.016964057460427284,0.04176340252161026,0.12826915085315704,-0.13169391453266144,0.07475650310516357,-0.1608002930879593,-0.14191576838493347,-0.19818058609962463,-0.15852147340774536,0.008936175145208836,0.01737888529896736,0.010150027461349964,-0.3084065914154053,0.3267500698566437,-0.15910503268241882,-0.12956257164478302,0.09729556739330292,0.04223466292023659,0.13452155888080597,-0.14469344913959503,0.15039534866809845,-0.15788713097572327,-0.2229212373495102,0.050592441111803055,0.17604650557041168,0.1241828054189682,0.07569476217031479,-0.04477640241384506,0.01164593268185854,-0.13213028013706207,-0.10775022208690643,-0.04631570354104042,-0.18569166958332062,0.08488732576370239,-0.1601368933916092,-0.19579128921031952,0.0007105731638148427,-0.2027982622385025,-0.06634301692247391,0.1517811417579651,0.07143157720565796,-0.00934609118849039,0.036981627345085144,-0.20765326917171478,-0.07968583703041077,-0.0021475888788700104,-0.11729641258716583,0.14032840728759766,0.14414574205875397,0.10241273045539856,0.008829768747091293,-0.16173911094665527,-0.09740940481424332,-0.07164844125509262,0.060523390769958496,-0.17891106009483337,0.023030200973153114,0.09375454485416412,0.24418514966964722,-0.1883593201637268,0.003979259170591831,0.04751776531338692,0.02767007239162922,-0.06808765232563019,0.034675780683755875,-0.06381868571043015,-0.040218107402324677,-0.1458890289068222,-0.07465852051973343,0.24231445789337158,0.1399698704481125,-0.010013965889811516,0.030041538178920746,-0.08782973885536194,0.028083380311727524,-0.17059668898582458,-0.23217278718948364,-0.014459052123129368,0.08575142920017242,-0.23095741868019104,0.02761979028582573,-0.003874435555189848,0.10181211680173874,0.012052997946739197,0.0832190066576004,-0.08965691924095154,0.31009620428085327,0.065330371260643,0.005310835782438517,-0.175119549036026,0.2501816153526306,0.043673161417245865,-0.1540808528661728,-0.010548424907028675,0.24615631997585297,-0.0627777948975563,0.18467694520950317,0.013930613175034523,0.1355571746826172,0.04409302771091461,0.030789967626333237,0.10699449479579926,0.09218437969684601,0.09166444092988968,-0.07656007260084152,-0.12461766600608826,-0.15083949267864227,-0.09306381642818451,0.23152782022953033,-0.07511179894208908,0.2668323814868927,0.10742071270942688,-0.10268811881542206,0.10248762369155884,0.022428257390856743,0.022686056792736053,-0.07026635110378265,-0.05325629189610481,-0.08592822402715683,0.08043182641267776,0.021990101784467697,-0.002061384730041027,-0.2756083905696869,0.14513011276721954,-0.3376432955265045,-0.13817863166332245,-0.16868752241134644,-0.12683624029159546,0.24516141414642334,0.12931349873542786,-0.09390228241682053,-0.09946423768997192,0.0272198598831892,-0.18025684356689453,-0.010559377260506153,-0.02836417593061924,-0.14634555578231812,0.04284307360649109,-0.12917613983154297,0.21830284595489502,0.048919837921857834,0.006864519789814949,0.05254046991467476,0.4466124176979065,-0.16570208966732025,0.035854894667863846
seq46,0.02667187713086605,0.3432881236076355,-0.07620513439178467,-0.04331560805439949,-0.23780769109725952,-0.26846903562545776,-0.041884440928697586,-0.2692149579524994,-0.10371293127536774,-0.050980087369680405,0.00018081095186062157,-0.08472401648759842,0.02219191938638687,0.1702422797679901,-0.0031168763525784016,-0.37138110399246216,0.18574801087379456,-0.035958144813776016,0.10899528115987778,0.15284116566181183,-0.08637677878141403,-0.6050962805747986,-0.12881100177764893,0.16310778260231018,-0.047047097235918045,-0.23360474407672882,-0.20169804990291595,0.06367107480764389,0.10730691254138947,0.2102990746498108,-0.10554061830043793,0.23525646328926086,0.3208090364933014,-0.03187740594148636,-0.10539298504590988,-0.41951245069503784,0.10480330139398575,-0.052373044192790985,0.012262124568223953,0.08239919692277908,0.04682540148496628,-0.22058746218681335,0.15833526849746704,-0.3424634039402008,-0.266201913356781,0.32624635100364685,-0.7831704616546631,0.18822811543941498,-0.418430358171463,-0.09171183407306671,-0.03977276757359505,-0.11923538148403168,-0.14194567501544952,0.25337642431259155,0.001419511274434626,-0.13343657553195953,0.2252165675163269,-0.10723055154085159,0.4671463966369629,-0.0658087506890297,-0.17274831235408783,0.03967764973640442,-2.946263551712036,0.09860739856958389,-0.04900754615664482,0.006901083514094353,-0.019794289022684097,0.15446411073207855,-0.16333617269992828,-0.04619018733501434,-0.08019382506608963,0.027482355013489723,0.0464094839990139,0.1986365169286728,0.07460363954305649,-0.03311500325798988,-0.08964075148105621,0.06859783083200455,-0.09303157031536102,0.03436167165637016,-0.11255437880754471,0.008402938954532146,-0.0489644780755043,0.22053168714046478,-0.056779563426971436,0.16110669076442719,0.11566828191280365,-0.04462418332695961,-0.001558602205477655,0.0075425924733281136,-0.29803597927093506,-0.1476995199918747,-0.13393758237361908,-0.1680292785167694,-0.24589750170707703,0.3944562077522278,0.16562794148921967,-0.09941691160202026,-0.12143001705408096,0.23869779706001282,0.22779899835586548,0.23597979545593262,0.3193708658218384,-0.10519211739301682,0.13728097081184387,0.08327139914035797,-0.05921352654695511,0.1515865921974182,-0.11833615601062775,0.4211364984512329,0.0935753881931305,0.17147596180438995,0.09524764120578766,-0.03748330846428871,-0.03000134974718094,0.01165190152823925,-0.06182345375418663,0.15539351105690002,0.04641731455922127,0.36701270937919617,0.2014310657978058,0.09749259054660797,0.05536305159330368,0.03913404792547226,0.2106255143880844,-0.10476090759038925,-0.4039067327976227,-0.2623613476753235,0.16287505626678467,0.05317230895161629,-0.0714506208896637,0.31099164485931396,0.2124086618423462,-0.121250681579113,0.1056102067232132,-0.3137211203575134,0.09555555880069733,-0.1101028174161911,0.06675130873918533,-0.059973303228616714,-0.1441497504711151,0.020930182188749313,0.24356192350387573,0.08301869034767151,-0.210180401802063,0.21159718930721283,-0.10951028764247894,0.3032584488391876,-0.04078163206577301,0.15558886528015137,0.42083460092544556,-0.5472249388694763,-0.36323001980781555,-0.13910582661628723,0.022111104801297188,0.17382684350013733,-0.009046792984008789,-0.07377707213163376,-0.24195371568202972,-0.4265231490135193,-0.0010812518885359168,-0.0901699885725975,0.23981159925460815,0.02152625285089016,-0.04455486685037613,0.27283573150634766,0.1036079004406929,-0.0976332500576973,-0.32218924164772034,-0.09635154157876968,-0.049854882061481476,0.1988043189048767,0.209538072347641,-0.08432845026254654,0.13384538888931274,-0.1263246238231659,0.08775047212839127,-0.339230477809906,-0.009619712829589844,-0.09182184189558029,-0.09972861409187317,-0.5858413577079773,0.18816301226615906,0.12387062609195709,-0.15664975345134735,0.08024507015943527,0.3823927938938141,0.5185787677764893,-0.025356760248541832,-0.29913434386253357,-0.12652480602264404,0.06524273008108139,0.5348061323165894,-0.22852610051631927,0.3525928258895874,-0.07799068093299866,-0.12220453470945358,0.1670343279838562,0.08291126787662506,0.0023914026096463203,0.31847432255744934,0.15816909074783325,0.08005973696708679,-0.28153133392333984,0.16637158393859863,0.0578027181327343,-0.06945690512657166,-0.2624592185020447,-0.04493841528892517,-0.13737092912197113,-0.17061804234981537,0.02949654869735241,0.2084791213274002,-0.10504119098186493,-0.3693911135196686,0.25951164960861206,-0.27452176809310913,-0.0552661158144474,-0.0657026618719101,-0.0321323424577713,-0.3189985752105713,-0.03884940594434738,0.1687096357345581,0.15260259807109833,-0.07035842537879944,-0.24037443101406097,0.0007477286271750927,-0.055260490626096725,-0.2222069352865219,-0.13224780559539795,-0.09609434753656387,0.026483284309506416,-0.07138592004776001,-0.03989187628030777,-0.08968722820281982,-0.046942759305238724,0.18733860552310944,0.030235514044761658,0.20104359090328217,-0.03387954458594322,0.19621139764785767,-0.21520082652568817,0.3821330666542053,0.047847647219896317,-0.16912098228931427,-0.02714523673057556,0.2607080638408661,-0.14521518349647522,-0.015237781219184399,-0.13881781697273254,0.059916287660598755,0.03731226921081543,-0.29061102867126465,-0.24647487699985504,0.19669951498508453,-0.10455423593521118,0.07862643897533417,-0.12466757744550705,0.6501312255859375,0.21906650066375732,-0.024607066065073013,0.050773050636053085,-0.5461171865463257,-0.04861476272344589,0.007505107205361128,0.029927844181656837,-0.017700523138046265,-0.26305750012397766,0.00315836607478559,0.1329721063375473,-0.06269744783639908,-0.039966437965631485,0.5357683897018433,-0.02068602293729782,0.4486355781555176,-0.18949031829833984,0.09640342742204666,0.11767257750034332,0.03210252895951271,-0.06405002623796463,-0.4815235137939453,-0.31068405508995056,0.20065617561340332,-0.14071033895015717,0.06551523506641388,0.1487666219472885,-0.19534705579280853,0.24387985467910767,0.09204776585102081,0.014424477703869343,0.14043577015399933,-0.09984365105628967,0.19385893642902374,0.22123490273952484,0.021703392267227173,-0.0030190404504537582,-0.27302131056785583,-0.026432285085320473,-0.1451658010482788,-0.19513526558876038,0.012252632528543472,-0.5028619766235352,0.11869834363460541,0.0631115660071373,0.21903131902217865,-0.10988301783800125,-0.1190539002418518,0.3026762306690216,0.05832444876432419,-0.07726646959781647,-0.017847208306193352,-0.31090450286865234,0.07111182808876038,0.13682420551776886,-0.031403932720422745,-0.25802427530288696,-0.10195142030715942,0.4264149069786072,-0.12266253679990768,0.10893341153860092
seq144,-0.013565038330852985,-0.06694802641868591,0.21566127240657806,-0.036997999995946884,0.42237475514411926,-0.253386527299881,-0.06993134319782257,0.07163441181182861,0.09129218012094498,0.08374905586242676,0.1712474375963211,-0.08991692215204239,-0.11157620698213577,0.00486375717446208,0.1721043884754181,-0.29087018966674805,0.22713230550289154,-0.21087415516376495,-0.15927274525165558,0.0947628915309906,0.06540278345346451,-0.17076170444488525,-0.03436598926782608,-0.00663870619609952,-0.09304684400558472,-0.02644428424537182,-0.2522081732749939,-0.14015056192874908,0.09217391908168793,0.2215668261051178,-0.3528496325016022,0.3842436671257019,0.10164599120616913,0.04952812194824219,0.046166885644197464,-0.16534797847270966,0.03180535137653351,-0.2616228759288788,-0.1752842217683792,-0.08034119755029678,0.06413817405700684,-0.15305614471435547,-0.00931775476783514,0.010368025861680508,-0.12995591759681702,0.16840460896492004,-0.7537791132926941,-0.015694625675678253,-0.21376933157444,-0.010401741601526737,-0.19006215035915375,0.30630090832710266,0.05288759618997574,0.06437062472105026,0.018565943464636803,-0.04867325350642204,0.3900442123413086,-0.25843289494514465,0.3656430244445801,0.07662952691316605,-0.07186421006917953,-0.12460491806268692,-3.2346160411834717,-0.10716831684112549,0.18921823799610138,-0.11241807788610458,0.08330624550580978,0.28145694732666016,0.000801229733042419,-0.08658653497695923,-0.051376599818468094,0.0881146490573883,-0.09051479399204254,0.12258698791265488,-0.04685903340578079,-0.06710441410541534,0.2586962580680847,0.01700776070356369,-0.056219421327114105,-0.05776466429233551,0.09900794923305511,0.07016519457101822,0.06051452085375786,0.011265547014772892,0.13466499745845795,0.10281667858362198,0.02634507417678833,0.0695030689239502,0.15493983030319214,0.361933171749115,-0.04473922401666641,-0.04573550447821617,0.06517991423606873,0.05130002275109291,-0.2361786663532257,0.11269118636846542,0.04882499575614929,-0.07261136174201965,0.18290716409683228,0.18284837901592255,0.3740478754043579,-0.07657341659069061,0.21456404030323029,0.04778185486793518,-0.11522824317216873,-0.08497533947229385,0.09850435703992844,0.15973371267318726,-0.002681880258023739,0.18751776218414307,-0.14793166518211365,0.2679421603679657,0.196738600730896,-0.05432775989174843,-0.11133717000484467,-0.10237869620323181,0.09154891967773438,0.45303022861480713,-0.02248322032392025,0.16695170104503632,0.12707941234111786,0.3864080011844635,0.023278892040252686,0.05597667023539543,0.13734470307826996,-0.031119348481297493,-0.15048131346702576,-0.06986969709396362,-0.25985187292099,0.04142983257770538,-0.01837555505335331,0.038710370659828186,-0.21235430240631104,-0.32722577452659607,0.34235668182373047,0.11633187532424927,-0.04748502001166344,0.0008504042634740472,-0.18718689680099487,0.03805847838521004,0.17362073063850403,-0.15565800666809082,7.349453426286345e-06,0.10136895626783371,0.019820556044578552,0.031371064484119415,-0.019269926473498344,0.15377016365528107,-0.03123253583908081,0.018571464344859123,0.13785657286643982,-0.29576680064201355,-0.2525431215763092,-0.13556285202503204,-0.314019113779068,0.05310878902673721,0.043240025639534,0.31440144777297974,-0.18257781863212585,-0.016407331451773643,0.14822153747081757,0.005614840425550938,0.09517733752727509,-0.1234004944562912,0.020721931010484695,0.08633818477392197,0.06052112579345703,-0.16386772692203522,-0.23228240013122559,0.13039252161979675,-0.06797084212303162,-0.13911041617393494,0.24115563929080963,-0.018858419731259346,0.04330610856413841,0.06077985092997551,0.002024530665948987,-0.2606692314147949,0.17189966142177582,-0.2326459288597107,-0.12980279326438904,-0.13369716703891754,0.07479851692914963,0.12022517621517181,0.05861891061067581,0.051408156752586365,-0.30682674050331116,0.3731003999710083,-0.17381781339645386,-0.02605636976659298,0.09635034948587418,0.1714325249195099,0.0030353418551385403,-0.12907056510448456,0.22791872918605804,-0.16480112075805664,-0.23824599385261536,0.03485313430428505,0.06198444962501526,0.07368217408657074,0.008165719918906689,0.0024826566223055124,0.04230017960071564,-0.19656001031398773,-0.11253340542316437,-0.10155345499515533,-0.1522398591041565,-0.013482252135872841,-0.21092601120471954,-0.21858811378479004,-0.04473075270652771,-0.11703011393547058,-0.07008326798677444,0.2290828824043274,0.00587490713223815,-0.18525537848472595,0.09816420823335648,-0.14011643826961517,-0.07842307537794113,-0.01252823881804943,-0.17177465558052063,-0.009533482603728771,-0.045885100960731506,0.027226770296692848,0.006670513655990362,-0.30661332607269287,-0.13213014602661133,-0.0201592855155468,0.06618449091911316,-0.14239448308944702,-0.08692538738250732,-0.031967662274837494,0.13090290129184723,-0.12300334870815277,-0.15381084382534027,0.033055003732442856,-0.03398763760924339,-0.04032576084136963,0.04457000270485878,-0.03877456113696098,0.010899940505623817,-0.07949009537696838,0.13878686726093292,0.10578947514295578,0.06973085552453995,-0.11812222748994827,0.1051587164402008,-0.02439340390264988,-0.034691955894231796,-0.03932967409491539,-0.2626080811023712,-0.1335582733154297,-0.12947341799736023,-0.20432908833026886,0.05447971075773239,-0.14690740406513214,0.01650608703494072,-0.049358271062374115,0.23941314220428467,-0.21297253668308258,0.12332551926374435,0.11426465213298798,-0.0003964180941693485,-0.13111481070518494,0.19733183085918427,0.09654935449361801,-0.15570642054080963,-0.20755651593208313,0.2496597170829773,-0.02349097467958927,0.17129825055599213,0.14611098170280457,0.11791247129440308,-0.0027477284893393517,0.1373722404241562,0.013645583763718605,0.2672455906867981,-0.047123752534389496,0.0754961296916008,-0.17319440841674805,-0.19309252500534058,-0.19566002488136292,0.1893187165260315,-0.05899498611688614,0.0791802704334259,0.15458202362060547,-0.08631729334592819,0.12271597981452942,0.03892975673079491,-0.09113358706235886,-0.03887249156832695,-0.1527586132287979,-0.00855671800673008,0.058026861399412155,0.16822201013565063,-0.1321302056312561,-0.08538713306188583,-0.010849874466657639,-0.26205524802207947,-0.1714888960123062,-0.08540321886539459,-0.07237037271261215,0.20615114271640778,0.16325750946998596,-0.15728417038917542,-0.043635837733745575,-0.06416454911231995,-0.16215543448925018,0.07929600775241852,-0.0987962856888771,-0.022565443068742752,0.05611526221036911,-0.12528279423713684,0.17520718276500702,-0.019313232973217964,-0.0006605185917578638,-0.018004897981882095,0.49546292424201965,-0.0330037847161293,-0.03506919741630554
seq62,-0.10599413514137268,-0.04727787896990776,0.21772341430187225,0.026972567662596703,0.21104122698307037,-0.2297869175672531,-0.0990031510591507,0.015688452869653702,-0.1450967788696289,0.04020676761865616,0.15532131493091583,0.09390933811664581,-0.15159937739372253,-0.03247480094432831,0.06869888305664062,-0.34395137429237366,0.26933878660202026,-0.14776021242141724,-0.15929599106311798,0.15479891002178192,-0.05614858120679855,-0.07151004672050476,-0.11037889868021011,-0.11194082349538803,-0.134531170129776,0.0893692895770073,-0.16266126930713654,0.01724780723452568,0.08525244146585464,0.12396740913391113,-0.14226162433624268,0.33410197496414185,0.14232668280601501,-0.19919784367084503,-0.02362470142543316,-0.2739822268486023,0.0020332776475697756,-0.08228050917387009,0.04187341779470444,-0.03749293461441994,0.18297836184501648,0.021341772750020027,-0.11235233396291733,0.017801601439714432,-0.1569637954235077,0.15086716413497925,-0.8269900679588318,0.018850212916731834,-0.2385237067937851,0.04763856157660484,-0.21926572918891907,0.13870707154273987,0.033201027661561966,0.06451824307441711,0.08271647989749908,-0.03488653153181076,0.27591168880462646,-0.24108916521072388,0.4633803069591522,-0.1025514006614685,-0.07313920557498932,-0.1075272336602211,-3.705324411392212,0.02410503476858139,0.17501117289066315,-0.09348598122596741,-0.08092044293880463,0.15854643285274506,-0.018128978088498116,-0.07809215784072876,0.035223495215177536,0.011316526681184769,-0.2627539336681366,0.2069307565689087,-0.04776396229863167,0.06331364065408707,0.22523677349090576,0.01421744842082262,-0.003571378765627742,0.051005344837903976,0.03998999297618866,0.004307621158659458,-0.07619829475879669,-0.07862366735935211,0.19357658922672272,0.018201077356934547,0.040698908269405365,0.024530556052923203,0.09087926894426346,0.2963942587375641,-0.027269549667835236,-0.07943573594093323,0.05401546508073807,0.08407857269048691,-0.2602737247943878,0.046312667429447174,0.013920278288424015,0.08752312511205673,0.06796115636825562,0.14588294923305511,0.4192127585411072,-0.06283511966466904,0.13725128769874573,0.247697114944458,-0.02941950224339962,0.05223716050386429,0.01999918930232525,0.12053138762712479,0.040696319192647934,0.1624193638563156,-0.02994496375322342,0.1549416333436966,0.14302635192871094,-0.06860276311635971,0.05378451943397522,-0.059417203068733215,-0.01981322467327118,0.34449586272239685,-0.05692221224308014,0.23531968891620636,0.15766437351703644,0.44116297364234924,0.018217364326119423,-0.0023133084177970886,0.10363704711198807,-0.04039442911744118,-0.09871303290128708,-0.051703449338674545,-0.1495608687400818,0.09031746536493301,-0.23752164840698242,0.08730822801589966,-0.34783512353897095,-0.22175690531730652,0.18863411247730255,0.09826760739088058,-0.05668732523918152,-0.19148726761341095,-0.17731447517871857,-0.03753519058227539,-0.021734103560447693,-0.10690554231405258,-0.09250209480524063,0.2184826135635376,-0.026563672348856926,0.11340505629777908,0.04290884733200073,0.1331002563238144,-0.10055873543024063,0.016219506040215492,0.25748884677886963,-0.2539207339286804,-0.17376750707626343,-0.1293448954820633,-0.3453594148159027,0.10607603937387466,0.06959313899278641,0.3229987621307373,-0.11662967503070831,-0.010248737409710884,0.015404974110424519,0.06136159971356392,0.09719463437795639,-0.025220347568392754,0.008875412866473198,0.049844369292259216,-0.032186359167099,-0.2910671830177307,-0.2684634029865265,0.06495204567909241,0.06108883395791054,0.1102825403213501,0.16716235876083374,0.032252050936222076,0.02117566578090191,-0.07505650073289871,-0.025060970336198807,-0.32388293743133545,0.03641856834292412,-0.14633509516716003,0.09531587362289429,-0.09022499620914459,0.09457162767648697,0.019139306619763374,0.0905476063489914,-0.0013245230074971914,-0.22954529523849487,0.25107404589653015,-0.09066122025251389,-0.14833441376686096,0.08057867735624313,0.05381327122449875,0.5307232737541199,-0.017690055072307587,0.08721822500228882,-0.05156150460243225,-0.16211678087711334,0.24749429523944855,0.0761077031493187,0.14365549385547638,0.04170343279838562,0.16902825236320496,0.10191650688648224,-0.21448922157287598,-0.17860282957553864,0.058374419808387756,-0.059771690517663956,-0.041895657777786255,-0.06492061913013458,-0.04932120442390442,-0.07614708691835403,-0.11277538537979126,-0.03738667443394661,0.2374175786972046,0.056310273706912994,-0.07412847876548767,-0.06914210319519043,0.010545525699853897,0.11640679091215134,-0.058245960623025894,-0.12158013135194778,-0.1535911113023758,-0.01321098767220974,0.03820784389972687,0.08089371025562286,-0.18604063987731934,-0.023092562332749367,0.042175233364105225,-0.025630464777350426,-0.021540125831961632,-0.10507387667894363,0.07810535281896591,0.07826898247003555,-0.017697390168905258,-0.07628332823514938,0.07817165553569794,-0.034397970885038376,-0.024820005521178246,-0.01804601214826107,-0.07076172530651093,0.0870479941368103,-0.1862514168024063,0.14794766902923584,0.05271276831626892,0.1390894055366516,-0.055366579443216324,0.04647812247276306,-0.12014458328485489,0.011555132456123829,-0.06744170188903809,-0.3201497495174408,-0.07841842621564865,-0.18291673064231873,-0.11274392157793045,0.0005106416647322476,-0.1470007449388504,-0.035834599286317825,-0.13289454579353333,0.15736401081085205,-0.24461424350738525,0.034334760159254074,0.014679662883281708,-0.044122837483882904,-0.09613090008497238,0.053735941648483276,0.08253324031829834,-0.2643970847129822,-0.23602354526519775,0.19208580255508423,-0.02161276526749134,0.1863815039396286,0.0035052828025072813,0.07871504127979279,0.057805586606264114,0.16957136988639832,0.030026106163859367,0.22831927239894867,-0.04419972002506256,0.04099349305033684,-0.2416953146457672,-0.1558552086353302,-0.12153937667608261,0.24917718768119812,-0.16366542875766754,-0.14045006036758423,0.15296907722949982,-0.035858403891325,0.10417944937944412,-0.13196301460266113,-0.21037828922271729,-0.15186908841133118,-0.12906813621520996,0.051998015493154526,0.036472562700510025,0.03423024341464043,-0.14640027284622192,0.0105704041197896,0.01545142475515604,-0.3259786069393158,-0.0634038969874382,-0.046625953167676926,-0.06181514635682106,0.24555718898773193,0.1426210105419159,-0.12557585537433624,-0.07977025210857391,-0.02307259477674961,-0.1774793267250061,0.2208831012248993,-0.0650809109210968,0.11761745065450668,0.09610387682914734,-0.0308762826025486,0.16544058918952942,-0.0169148501008749,0.05348844453692436,-0.01629682444036007,0.2990574538707733,0.10221938043832779,0.10014393925666809
seq126,0.023649439215660095,-0.13608486950397491,0.2184528261423111,-0.05171984061598778,0.2773207724094391,-0.2609863579273224,-0.053481634706258774,0.047147952020168304,0.00368310883641243,0.03988184779882431,0.20041652023792267,-0.06684355437755585,-0.1668367087841034,0.018853995949029922,0.07027716189622879,-0.39590951800346375,0.282797634601593,-0.18203742802143097,0.035169683396816254,0.09375239163637161,0.11763696372509003,-0.12059859931468964,-0.012326943688094616,-0.004909064620733261,-0.1588515341281891,-0.029709983617067337,-0.29835522174835205,-0.18716824054718018,0.19282804429531097,0.1796789914369583,-0.2170167863368988,0.49038568139076233,0.1209864392876625,-0.03532397001981735,0.007297398056834936,-0.2716720700263977,0.09104689210653305,-0.10078221559524536,-0.06231727823615074,-0.09872434288263321,0.11598395556211472,-0.0872291624546051,-0.013146748766303062,0.04749797284603119,-0.23343554139137268,0.237696573138237,-0.704176664352417,0.05312490463256836,-0.17645613849163055,-0.1140492856502533,-0.22467923164367676,0.22161556780338287,0.06417103856801987,-0.020245805382728577,-0.057773105800151825,-0.022264499217271805,0.2887454330921173,-0.19827581942081451,0.36794567108154297,-0.04271019622683525,-0.058995865285396576,-0.05045448988676071,-3.2820560932159424,0.022829554975032806,0.13183504343032837,-0.04156580939888954,-0.04521796107292175,0.18880748748779297,-0.060834940522909164,-0.05453583225607872,-0.11260887235403061,0.07879524677991867,-0.07062386721372604,0.17781615257263184,-0.0621630996465683,0.01335925329476595,0.23443233966827393,0.026289353147149086,-0.08105801790952682,-0.08716500550508499,0.06026853993535042,0.04685194417834282,-0.010939209721982479,-0.01728917844593525,0.18209363520145416,0.05564749985933304,0.018315251916646957,0.09763094782829285,0.12287839502096176,0.2484016865491867,-0.1311836838722229,-0.10700464248657227,0.06209623068571091,0.04083327203989029,-0.30950722098350525,0.2162841111421585,0.006178749725222588,-0.07662568986415863,0.16402758657932281,0.0651162639260292,0.37187790870666504,-0.1308400183916092,0.23562268912792206,0.0697442814707756,-0.07106992602348328,-0.011074662208557129,0.07997099310159683,0.02624187059700489,0.004942841362208128,0.20925727486610413,-0.09086604416370392,0.2557467222213745,0.18947665393352509,-0.09135308116674423,0.03040185756981373,0.005492468364536762,0.06130087375640869,0.4915856122970581,0.02493738941848278,0.2094976305961609,0.19524219632148743,0.42182430624961853,0.0500766858458519,-0.06130772829055786,0.19405534863471985,-0.05489933863282204,-0.13758951425552368,-0.14283138513565063,-0.28168895840644836,0.0371195524930954,-0.16110120713710785,0.04828257113695145,-0.2785928547382355,-0.1893959641456604,0.24861520528793335,0.12935201823711395,-0.0443994365632534,-0.16070325672626495,-0.21560029685497284,-0.16212467849254608,0.13630065321922302,-0.18484725058078766,-0.029839348047971725,0.12001368403434753,-0.0538584440946579,0.09318334609270096,-0.06800331920385361,0.24320927262306213,-0.09953586757183075,0.0015112219844013453,0.1729569286108017,-0.4020983576774597,-0.40081629157066345,-0.17521162331104279,-0.28789976239204407,0.03441467136144638,0.130048930644989,0.2915057837963104,-0.08921342343091965,-0.0313388854265213,0.11815492063760757,0.0786760151386261,0.15302875638008118,-0.07068634033203125,-0.062442678958177567,0.12693393230438232,-0.08292093127965927,-0.39527320861816406,-0.22935724258422852,0.034919802099466324,-0.018011633306741714,-0.06007591634988785,0.19786995649337769,0.025874176993966103,-0.00018591989646665752,-0.00880173034965992,0.08498041331768036,-0.31063616275787354,0.07923492789268494,-0.16442431509494781,-0.10598215460777283,-0.25640901923179626,0.165145605802536,-0.02998899482190609,0.13562455773353577,-0.07384265959262848,-0.328157901763916,0.39265161752700806,-0.1485573649406433,-0.09650921076536179,0.17344139516353607,0.22564254701137543,0.397593230009079,-0.11173085868358612,0.1977849155664444,-0.09727874398231506,-0.22861060500144958,0.0987759456038475,0.05793486908078194,-0.0007100322982296348,0.13049378991127014,0.035443104803562164,0.23564133048057556,-0.1406526118516922,-0.15862277150154114,-0.03922903910279274,-0.13560739159584045,-0.15157172083854675,-0.15854835510253906,-0.07159338146448135,-0.1180645301938057,-0.1810421496629715,0.04022124409675598,0.18875208497047424,-0.020264750346541405,-0.09566925466060638,0.013095386326313019,-0.0861818864941597,-0.00927865132689476,0.02293785847723484,-0.19408562779426575,-0.008997931145131588,-0.04421060532331467,0.059733081609010696,-0.0045840078964829445,-0.24972553551197052,-0.006415762472897768,-0.023148970678448677,-0.019073298200964928,-0.06554853171110153,-0.17970363795757294,0.1216130182147026,0.08958397805690765,-0.11921480298042297,-0.09861032664775848,0.07543748617172241,-0.11889613419771194,0.05819538235664368,0.05470215156674385,-0.06685890257358551,-0.025561479851603508,-0.11498909443616867,0.11399644613265991,0.1353083848953247,0.056051526218652725,0.037687767297029495,0.12490236759185791,-0.11728757619857788,-0.010300755500793457,-0.03898449242115021,-0.3669827878475189,-0.16632512211799622,-0.14357806742191315,-0.14946749806404114,0.14196671545505524,-0.20461022853851318,0.06726988404989243,-0.06625153869390488,0.1862230896949768,-0.21027560532093048,0.09605713933706284,0.1454600691795349,-0.0877302959561348,-0.040569014847278595,0.03872459754347801,0.062062572687864304,-0.2315196990966797,-0.33522742986679077,0.15149633586406708,-0.025246644392609596,0.12807483971118927,0.08164338022470474,0.24590112268924713,0.06842965632677078,0.15392017364501953,-0.0007388630765490234,0.27749085426330566,0.0031501485500484705,0.052841030061244965,-0.182443767786026,-0.16476228833198547,-0.23068282008171082,0.24364230036735535,-0.2158433198928833,-0.03815942257642746,0.2587667405605316,-0.06896389275789261,0.15065215528011322,0.05746382847428322,-0.15230369567871094,-0.0817195475101471,-0.11541483551263809,0.03942510485649109,0.1389644593000412,0.08932255953550339,-0.11906749755144119,-0.0050705731846392155,0.08284883946180344,-0.23782241344451904,-0.17090806365013123,-0.09169141203165054,-0.10551949590444565,0.25449931621551514,0.16552601754665375,-0.11659074574708939,0.0031129419803619385,-0.1020023375749588,-0.16602064669132233,0.10298852622509003,-0.06386803835630417,0.17019551992416382,0.09605428576469421,-0.062167394906282425,0.2416478544473648,0.02582249417901039,0.1005886048078537,0.02496892772614956,0.3768653869628906,0.04480426385998726,0.11711492389440536
seq159,-0.10158872604370117,-0.25211217999458313,0.1017729714512825,0.026218686252832413,0.10821844637393951,-0.12804996967315674,0.12857364118099213,0.04543611407279968,-0.1828480064868927,0.16811783611774445,0.2398456335067749,0.27585986256599426,-0.012138054706156254,0.12743811309337616,0.03822316601872444,-0.267557829618454,0.09309104084968567,-0.12437532097101212,-0.3456194996833801,0.09748561680316925,-0.32081419229507446,0.07397054880857468,-0.09953410178422928,-0.18069018423557281,-0.049079108983278275,0.3670448958873749,0.2146291583776474,0.0773419439792633,0.1716647446155548,0.07222046703100204,-0.021549027413129807,-0.20107360184192657,0.026509081944823265,-0.1125979945063591,0.1826171875,-0.3894757330417633,0.15855355560779572,0.07078488916158676,0.0780174508690834,0.06314842402935028,0.07388561964035034,0.12216368317604065,0.4166580140590668,0.25316017866134644,-0.08034925907850266,-0.0068822260946035385,-0.8304586410522461,-0.07170623540878296,-0.07632588595151901,0.10716338455677032,-0.07672400772571564,-0.00036813606857322156,-0.07877995073795319,0.3506987690925598,0.04763784632086754,-0.13784843683242798,0.2558051347732544,-0.03239100053906441,0.38155192136764526,-0.4186738431453705,0.036994896829128265,0.054386790841817856,-4.488314151763916,-0.1097741648554802,-0.08790542930364609,-0.24830621480941772,-0.10013566166162491,0.09766867011785507,-0.17815907299518585,-0.08556018769741058,-0.1953054517507553,0.16987422108650208,-0.09460798650979996,0.31337547302246094,0.004802623298019171,0.14925715327262878,0.0334392711520195,-0.25354301929473877,0.06838250160217285,-0.0669914186000824,0.0709354430437088,-0.08904343098402023,-0.0015649693086743355,0.20763364434242249,-0.05223874747753143,-0.40712010860443115,0.030402354896068573,-0.050047386437654495,-0.05569428205490112,0.23359368741512299,-0.1674070954322815,0.07944061607122421,-0.1970314383506775,0.010069657117128372,-0.17792268097400665,0.0716588944196701,0.10232691466808319,0.2229021191596985,0.1584244668483734,0.039712946861982346,0.03419768437743187,-0.001499241916462779,-0.020239457488059998,0.16745604574680328,-0.0731058418750763,0.2146155834197998,-0.010107995942234993,-0.011127793230116367,-0.007043392863124609,-0.10640422999858856,-0.001633788924664259,0.18201641738414764,0.05863357335329056,-0.05495817959308624,0.1978837251663208,0.020915454253554344,-0.2558149993419647,0.1861780732870102,-0.068242646753788,0.22602613270282745,0.17610704898834229,0.17152422666549683,0.3099193871021271,0.07411392778158188,-0.019336476922035217,-0.1665545552968979,-0.11965629458427429,-0.09755401313304901,-0.07839316874742508,0.11748819053173065,0.009562945924699306,-0.08621612191200256,-0.17418403923511505,0.03366202488541603,0.020199550315737724,0.10702738910913467,-0.15134619176387787,-0.1468183845281601,-0.11798551678657532,-0.13288617134094238,0.06893518567085266,0.07269971072673798,0.11943133175373077,0.19048243761062622,-0.10914143919944763,0.057221513241529465,-0.05989539995789528,0.0944569855928421,-0.2266988456249237,0.2554677724838257,0.0003367563185747713,-0.0240267813205719,-0.19484245777130127,-0.2718193531036377,-0.11603200435638428,0.01706821098923683,0.0771179050207138,-0.012989548966288567,-0.05450178682804108,0.0815725326538086,-0.08170775324106216,-0.06630386412143707,-0.18440644443035126,-0.14121393859386444,0.004327575210481882,-0.026153510436415672,-0.15781128406524658,-0.1258333921432495,-0.17767934501171112,0.06748200207948685,0.43992671370506287,0.11274254322052002,0.017935410141944885,0.23648665845394135,0.18902872502803802,0.03490111604332924,0.18136709928512573,-0.20851637423038483,0.1483645737171173,0.009233604185283184,0.32313790917396545,-0.30289167165756226,0.02448846586048603,-0.06927969306707382,0.00685333926230669,0.02310510352253914,-0.2594625949859619,0.1463087797164917,-0.11999908089637756,-0.2829088270664215,0.02874559909105301,-0.048186905682086945,0.47707176208496094,0.18304838240146637,0.10915040224790573,0.004058435093611479,-0.16571426391601562,0.1586371660232544,0.31271815299987793,0.23227232694625854,-0.11282558739185333,0.10124091058969498,0.1333310455083847,-0.052863311022520065,0.00683618476614356,0.13730847835540771,-0.20212015509605408,0.2834906578063965,0.04066682979464531,0.05462323874235153,-0.03380434960126877,-0.03700578585267067,-0.10395674407482147,-0.0486067458987236,-0.07927960157394409,0.13777466118335724,-0.013866202905774117,-0.08827400207519531,0.04151761904358864,-0.2017078995704651,-0.09873980283737183,-0.09715349972248077,0.1739911586046219,-0.06221911311149597,0.08831142634153366,-0.05159708857536316,-0.12016113847494125,-0.08685335516929626,-0.04100176692008972,0.013067774474620819,-0.1849144995212555,-0.05374002456665039,0.14450521767139435,0.0336257629096508,0.12937380373477936,0.011189828626811504,-0.0980604887008667,0.009930233471095562,-0.07322342693805695,-0.030502967536449432,0.08526827394962311,-0.24766413867473602,0.10485157370567322,0.1399562656879425,-0.06677895039319992,0.008437002077698708,0.1194797083735466,-0.056438930332660675,0.08230909705162048,-0.09193898737430573,-0.3646913170814514,-0.13371144235134125,0.06691917777061462,-0.22650209069252014,-0.1080254316329956,-0.014904615469276905,0.1677892655134201,-0.05166520178318024,0.006098059006035328,-0.007843165658414364,0.1203283965587616,-0.19844560325145721,-0.15321141481399536,-0.06904079020023346,0.09305713325738907,0.03254034370183945,-0.0915936604142189,-0.12995941936969757,0.08864229917526245,0.07207522541284561,0.19117820262908936,0.030360041186213493,0.037684276700019836,0.35950976610183716,0.06140683591365814,-0.09685316681861877,-0.09101174026727676,0.056677356362342834,0.11146648973226547,-0.11653411388397217,0.014738271944224834,-0.03734016790986061,0.1977301687002182,-0.03183648735284805,0.078593909740448,0.011290372349321842,-0.03430282697081566,0.2717881500720978,-0.09456907957792282,-0.01319362223148346,-0.04903619736433029,-0.047289274632930756,0.2360021322965622,-0.03544129431247711,-0.010312261059880257,-0.13810236752033234,-0.11877250671386719,0.07790695875883102,-0.30762192606925964,0.21154694259166718,-0.014106140471994877,-0.17310276627540588,-0.1481357365846634,0.03556068241596222,-0.04015084728598595,0.09449725598096848,-0.05161207541823387,-0.18863418698310852,0.03611184284090996,-0.015187345445156097,0.12781861424446106,-0.06031566485762596,0.04618217051029205,0.1183389201760292,-0.07947906106710434,0.09932146221399307,0.019780606031417847,0.28347325325012207,0.007553777191787958,0.03624437749385834
seq161,-0.19085849821567535,-0.14350472390651703,0.1430206000804901,0.1405053585767746,0.44196954369544983,-0.40150079131126404,-0.06110023707151413,0.04345041513442993,0.024723652750253677,0.1487451046705246,0.3470826745033264,0.1297072023153305,-0.2285824865102768,-0.19148142635822296,0.20873871445655823,-0.14186210930347443,0.38134482502937317,-0.22747202217578888,-0.10045308619737625,0.15810279548168182,0.1317867785692215,-0.24973750114440918,0.02547876164317131,-0.128984734416008,0.010351499542593956,-0.008244402706623077,-0.2362838089466095,0.03315979614853859,0.20469671487808228,0.0645289421081543,-0.2625178396701813,0.6460122466087341,0.25540250539779663,-0.051017459481954575,0.11332622170448303,-0.06314072757959366,-0.1919732689857483,-0.19375881552696228,-0.09941940009593964,-0.031801097095012665,0.1612926572561264,-0.034024517983198166,-0.12271695584058762,0.14973925054073334,0.015108057297766209,0.11547127366065979,-0.7905968427658081,0.03644862771034241,-0.2997572720050812,0.036406781524419785,-0.18302354216575623,0.23659920692443848,0.08276644349098206,-0.07092525064945221,-0.02393200993537903,0.02155463583767414,0.46593543887138367,-0.06962931156158447,0.4391760528087616,-0.14400498569011688,0.03815903887152672,-0.1240762248635292,-3.0875895023345947,-0.09081234037876129,0.27992257475852966,-0.07247758656740189,-0.012192923575639725,0.1429222971200943,-0.21851757168769836,-0.14296847581863403,0.01513756811618805,0.06763724237680435,-0.07557636499404907,0.004990197718143463,-0.1074298843741417,-0.0633675679564476,0.281312495470047,-0.01830998808145523,-0.13036026060581207,0.026260949671268463,0.157795712351799,0.2034907042980194,0.03427620977163315,-0.13629525899887085,0.1582842469215393,0.1455184817314148,-0.0505690835416317,0.014887112192809582,0.12836870551109314,0.513266921043396,0.0456034317612648,-0.20209257304668427,0.037643127143383026,0.14647577702999115,-0.1367710381746292,0.03191076219081879,0.02221565879881382,-0.30716291069984436,0.2155444473028183,0.09899221360683441,0.4653341472148895,-0.08516709506511688,0.2568504810333252,0.43487340211868286,-0.2190832644701004,0.04697243124246597,0.09789549559354782,0.16319520771503448,-0.057283464819192886,0.10545860975980759,-0.062123607844114304,0.07146371155977249,0.2299683839082718,-0.02003725804388523,0.04356306046247482,-0.050180841237306595,0.18269474804401398,0.3899180293083191,0.06453955173492432,0.36159437894821167,-0.018518216907978058,0.47048407793045044,0.02300519309937954,-0.07704582065343857,0.06532277166843414,-0.043117836117744446,-0.10213082283735275,-0.05680139735341072,-0.2512429654598236,-0.031140806153416634,-0.14226409792900085,-0.0012122063199058175,-0.21032913029193878,-0.1886700540781021,0.11169323325157166,-0.031249074265360832,0.022184912115335464,-0.04471629485487938,-0.28897178173065186,-0.13565035164356232,0.0653376430273056,-0.2246878445148468,-0.013876701705157757,0.24256104230880737,-0.05237475037574768,0.05686849355697632,-0.004057349171489477,0.13451522588729858,0.21503892540931702,-0.11188814789056778,0.21179184317588806,-0.1355608105659485,-0.19420139491558075,-0.27526357769966125,-0.35241270065307617,0.044095445424318314,0.023557862266898155,0.3610855042934418,-0.17198742926120758,-0.06631796807050705,0.18846361339092255,0.010847172699868679,0.1272171437740326,0.18940846621990204,-0.14650942385196686,0.08639105409383774,0.09167560935020447,-0.21249033510684967,-0.31225115060806274,0.06933639198541641,0.025593768805265427,-0.18914742767810822,0.3869691789150238,0.02320987917482853,-0.011204301379621029,0.04656395688652992,-0.06057681515812874,-0.2872031629085541,0.12927478551864624,-0.30884796380996704,-0.19204890727996826,-0.15643033385276794,0.10634472221136093,0.018007289618253708,-0.07458551228046417,-0.03445040062069893,-0.3795669376850128,0.2538723349571228,-0.08300529420375824,0.13257502019405365,0.147683784365654,0.19334396719932556,-0.11368203163146973,-0.00704616354778409,0.09047700464725494,-0.18456301093101501,-0.13745471835136414,-0.06520548462867737,-0.11121861636638641,0.13408344984054565,0.1292014718055725,0.15137256681919098,-0.04877585172653198,-0.16024145483970642,-0.23963876068592072,-0.0023341290652751923,-0.16997188329696655,-0.30280956625938416,-0.009331800974905491,-0.20762625336647034,-0.04217064380645752,-0.014837420545518398,-0.09417479485273361,0.188852459192276,0.027008056640625,-0.2261367291212082,0.034528158605098724,0.0029727937653660774,-0.1215982437133789,-0.021614251658320427,-0.05453656241297722,0.012467954307794571,-0.09176739305257797,-0.02115553431212902,0.13052482903003693,-0.27881479263305664,-0.15030497312545776,0.0899493396282196,0.016468921676278114,-0.0420302152633667,-0.18394052982330322,0.09912897646427155,0.08444908261299133,0.09294433146715164,-0.18356798589229584,0.026648826897144318,-0.11889253556728363,0.10516656190156937,-0.03191916272044182,-0.09440179169178009,0.03582677245140076,-0.03440225496888161,0.19950419664382935,-0.00836009718477726,0.051571305841207504,-0.13817887008190155,0.16758853197097778,-0.04036682844161987,-0.046774301677942276,-0.12260353565216064,-0.3077605962753296,-0.334328293800354,-0.09491395205259323,-0.13688413798809052,-0.09260500967502594,-0.29618361592292786,0.0557689294219017,-0.21568304300308228,0.17470844089984894,-0.27645060420036316,0.04354158416390419,-0.06632086634635925,-0.034481510519981384,-0.09086132049560547,0.11110630631446838,0.07399915158748627,-0.2389598786830902,-0.1762789785861969,0.1995009183883667,0.046919289976358414,0.1825195848941803,0.01312349084764719,-0.04538891091942787,-0.036057695746421814,0.2953534424304962,0.06933050602674484,0.1907791644334793,-0.04110255464911461,0.23696349561214447,-0.2190508246421814,-0.16575929522514343,-0.05872887000441551,0.1693008542060852,-0.16836118698120117,-0.1497858166694641,0.16168846189975739,-0.211325004696846,0.1676298975944519,0.075986847281456,-0.16499510407447815,-0.12088318169116974,-0.27401578426361084,-0.06860099732875824,0.01608961634337902,0.2574740946292877,-0.18153350055217743,-0.07210922241210938,-0.027002276852726936,-0.3581875264644623,-0.06835052371025085,-0.03165777772665024,-0.027351247146725655,0.4127146899700165,0.15889190137386322,-0.14181412756443024,-0.07321137189865112,-0.1555405706167221,-0.046600982546806335,0.22463461756706238,-0.04797454923391342,0.026350662112236023,0.10253942757844925,-0.054976996034383774,0.22022347152233124,0.0025548208504915237,0.1148831844329834,-0.12124422192573547,0.23877206444740295,0.0901862308382988,0.05561332404613495
seq106,0.031142840161919594,-0.02996538020670414,0.008933520875871181,-0.012352507561445236,0.44772228598594666,-0.28209176659584045,-0.12425859272480011,0.014990249648690224,0.08693656325340271,0.016019223257899284,0.1473391056060791,-0.08166727423667908,-0.23312348127365112,-0.04429388791322708,0.06912922859191895,-0.2597496211528778,0.17407448589801788,-0.14340445399284363,-0.0977560430765152,0.028004415333271027,0.07892947643995285,-0.10362273454666138,-0.05622721463441849,-0.003900680458173156,-0.17595063149929047,0.03590358793735504,-0.08645536750555038,-0.004440797492861748,0.13079993426799774,0.2584947347640991,-0.2964932918548584,0.15011590719223022,0.08540116250514984,-0.0752909705042839,0.11114959418773651,-0.21307556331157684,0.06001543998718262,-0.0975194051861763,-0.10696224868297577,-0.04746415466070175,0.03416116163134575,-0.15691126883029938,0.10661692917346954,0.008698953315615654,-0.0009686222183518112,0.018691692501306534,-0.7802121639251709,0.13155636191368103,-0.13444605469703674,-0.0717238336801529,-0.12349002063274384,0.24584029614925385,0.10382039099931717,0.17842219769954681,-0.05104205012321472,0.04831172898411751,0.2621471881866455,-0.1454712599515915,0.4379218518733978,-0.013356754556298256,-0.07093507796525955,-0.05174173042178154,-3.7138450145721436,-0.16317737102508545,0.08449249714612961,-0.15452919900417328,0.030628759413957596,0.42184925079345703,0.05252158269286156,-0.02771238423883915,-0.14050443470478058,0.07641653716564178,-0.03615667670965195,0.006116930395364761,-0.2751956284046173,-0.020753785967826843,0.20292928814888,-0.04367115721106529,-0.03689000383019447,-0.09621047973632812,0.1535317301750183,0.026075420901179314,-0.021504292264580727,-0.01131848618388176,0.0028218748047947884,-0.04247143864631653,-0.037330031394958496,0.11267349123954773,0.07994501292705536,0.1955576241016388,-0.15184183418750763,0.01348828338086605,-0.020084230229258537,0.0776684358716011,-0.08223973959684372,0.33248814940452576,0.05356155335903168,-0.09210161119699478,0.23898324370384216,0.04476162791252136,0.1248096227645874,-0.1516767293214798,0.06563235074281693,0.0783236101269722,-0.10834743082523346,0.05561952292919159,-0.08504932373762131,0.11227890104055405,0.018780136480927467,0.030387332662940025,-0.15175601840019226,0.3274560868740082,0.23906922340393066,0.004544639028608799,-0.00646278727799654,-0.08111180365085602,0.19226863980293274,0.48612403869628906,-0.1211538016796112,0.2766340970993042,0.1306571513414383,0.40080156922340393,0.17288599908351898,0.3130338788032532,0.15423452854156494,-0.11164861917495728,-0.19584406912326813,-0.3229607343673706,-0.3207685053348541,-0.019838061183691025,0.007114331237971783,0.053760044276714325,-0.28354719281196594,-0.2731879651546478,0.20088393986225128,0.10092910379171371,-0.11054164171218872,-0.11033683270215988,-0.10381873697042465,0.106597900390625,0.20192214846611023,-0.04051845520734787,0.02666974812746048,0.0709119364619255,-0.12113449722528458,-0.021306106820702553,-0.06718814373016357,0.2065967321395874,-0.06999710202217102,0.08099568635225296,0.18472230434417725,-0.18972308933734894,-0.25049036741256714,-0.14551621675491333,-0.15369510650634766,-0.11037974059581757,0.09459750354290009,0.13028959929943085,-0.036267850548028946,-0.03607514500617981,0.10325990617275238,-0.08948448300361633,0.05407792329788208,-0.1729612946510315,-0.09040579944849014,0.13538028299808502,0.01647278293967247,-0.049615196883678436,-0.12584571540355682,0.0915239155292511,0.0927463099360466,-0.24068020284175873,0.11326897144317627,0.0971117690205574,-0.010966538451611996,0.06241920217871666,0.10243549942970276,-0.04546203836798668,0.08092018961906433,-0.21308152377605438,-0.056261345744132996,-0.17741252481937408,-0.0653303787112236,-0.005034056957811117,-0.0013230334734544158,-0.02943986840546131,-0.2613092362880707,0.27285438776016235,-0.16209028661251068,-0.09076888859272003,0.0237103458493948,0.09573226422071457,0.20492058992385864,-0.022667724639177322,0.1604689508676529,-0.034175749868154526,-0.130674347281456,-0.03267209976911545,0.03411131352186203,0.0957525447010994,0.04792943224310875,0.03258378058671951,0.0009494881378486753,-0.06994067877531052,-0.13574713468551636,-0.05110674723982811,-0.24583397805690765,0.21721887588500977,-0.0422111451625824,-0.1370640993118286,0.01942051388323307,-0.1690300554037094,-0.05890549719333649,0.18384404480457306,0.08352654427289963,0.007652833126485348,0.03124922513961792,-0.09322118014097214,-0.13297216594219208,-0.11979420483112335,-0.11640626937150955,0.1145775318145752,0.06525641679763794,0.059359170496463776,0.022693157196044922,-0.11478868871927261,-0.13616669178009033,-0.04006792977452278,-0.0043946183286607265,-0.20365507900714874,-0.12026766687631607,0.16258083283901215,0.25989094376564026,0.11745207011699677,0.025333093479275703,0.04861634597182274,0.060574885457754135,-0.014989341609179974,0.02742183580994606,-0.028846804052591324,-0.03946888819336891,-0.05568087100982666,-0.016981003805994987,0.12442853301763535,0.08349553495645523,-0.1072109192609787,0.06606578081846237,-0.08504234254360199,0.07548092305660248,-0.08022551983594894,-0.23495864868164062,-0.1098964661359787,0.09938165545463562,-0.18249180912971497,-0.06277593225240707,-0.07369966804981232,0.1448834091424942,-0.09205108135938644,0.04157855734229088,-0.12250048667192459,0.16633793711662292,-0.0682305172085762,-0.04358406364917755,-0.05601935088634491,0.12763109803199768,0.01779511198401451,-0.24925750494003296,-0.0024196086451411247,0.19897277653217316,0.016972845420241356,0.2101733535528183,-0.028683319687843323,0.12949372828006744,0.10129308700561523,0.18062259256839752,0.05889039486646652,0.14536789059638977,0.06119988486170769,-0.0026560118421912193,-0.14029860496520996,-0.19358083605766296,-0.1028449758887291,0.20270651578903198,-0.03929489478468895,0.1051115095615387,-0.04787972569465637,-0.10990626364946365,0.1335577368736267,-0.06573180854320526,-0.12612207233905792,-0.07196206599473953,-0.06474697589874268,-0.05092298239469528,-0.12124764174222946,0.09010566025972366,-0.08891212195158005,-0.20932245254516602,0.13543739914894104,-0.3438240885734558,0.002377188764512539,-0.1205141469836235,-0.07524751871824265,0.26073455810546875,0.1492035686969757,-0.11889825761318207,-0.06777373701334,-0.0627371296286583,-0.2117343693971634,0.024209722876548767,-0.003448583884164691,-0.03791135177016258,0.0674218237400055,-0.07784871757030487,0.18710368871688843,-0.10730557143688202,0.06924858689308167,0.10790641605854034,0.5132095813751221,-0.0979679599404335,-0.019047679379582405
seq158,-0.09681794047355652,-0.07592857629060745,0.12779557704925537,-0.00012631977733690292,0.40560176968574524,-0.21417191624641418,-0.18637016415596008,0.04802049696445465,-0.011153501458466053,0.06759286671876907,0.187289297580719,-0.031410034745931625,-0.15669357776641846,-0.09149651229381561,0.1079116016626358,-0.17845453321933746,0.2835848331451416,-0.14891144633293152,-0.08408340811729431,0.10016760975122452,0.06362325698137283,-0.08511181175708771,0.009749683551490307,-0.0388912633061409,-0.20996806025505066,0.0747552365064621,-0.09261592477560043,-0.00932029727846384,0.1246330589056015,0.1366759091615677,-0.2679714560508728,0.3586964011192322,0.15448400378227234,-0.05726509168744087,0.008673089556396008,-0.21610859036445618,0.1287546157836914,-0.14572519063949585,0.014925257302820683,0.027826936915516853,0.053019434213638306,-0.015145285986363888,0.010723352432250977,0.0024993261322379112,0.017066076397895813,0.09942757338285446,-0.8888806700706482,0.10269595682621002,-0.17112715542316437,0.006308677606284618,-0.13978706300258636,0.15206113457679749,0.12487810105085373,-0.001996793784201145,0.009653308428823948,-0.050144072622060776,0.3007723391056061,-0.13335414230823517,0.34139227867126465,-0.033491265028715134,-0.08659286051988602,-0.16715310513973236,-3.8315348625183105,-0.09491845220327377,0.16849461197853088,-0.13975995779037476,-0.03644213080406189,0.21247652173042297,-0.05238490551710129,-0.07816696912050247,-0.021604225039482117,0.05515231937170029,-0.18419857323169708,0.143854022026062,-0.15630462765693665,-0.06795507669448853,0.16928598284721375,0.018546253442764282,0.011558327823877335,0.00314595689997077,0.049092091619968414,0.12735271453857422,-0.015675095841288567,-0.04724004864692688,0.1519831418991089,0.014155089855194092,0.034827396273612976,0.008301478810608387,0.14442555606365204,0.3072096109390259,0.05426907539367676,-0.06731511652469635,0.1401020884513855,0.14239414036273956,-0.18745605647563934,0.11908262223005295,0.02407914400100708,-0.05477092042565346,0.08200007677078247,-0.0031737685203552246,0.28182435035705566,-0.060170747339725494,0.13515812158584595,0.1575457900762558,-0.07278164476156235,0.11761830002069473,0.057642560452222824,0.18088844418525696,0.08815666288137436,0.13218596577644348,0.02647486701607704,0.23974144458770752,0.17519831657409668,-0.06267958879470825,0.028596874326467514,-0.03801202401518822,0.12891614437103271,0.38454458117485046,-0.0307301115244627,0.2147214114665985,0.11559805274009705,0.3416956067085266,0.05006854981184006,0.029307767748832703,0.10154613107442856,-0.06442492455244064,-0.10017623752355576,-0.048548921942710876,-0.21715980768203735,0.02295134961605072,-0.12572306394577026,0.05035499483346939,-0.1134614497423172,-0.17198821902275085,0.1590854376554489,0.09148237109184265,-0.12169138342142105,-0.047173336148262024,-0.31780412793159485,-0.03605303168296814,0.09434840083122253,-0.1972140669822693,-0.016889408230781555,0.16074158251285553,0.002856150269508362,0.04728366807103157,0.008408285677433014,0.13904397189617157,-0.0481610931456089,-0.04428793489933014,0.12507346272468567,-0.2635616064071655,-0.1406623125076294,-0.1399098038673401,-0.26175937056541443,0.0812680721282959,0.0350540392100811,0.30507537722587585,-0.19081974029541016,0.009118881076574326,0.07594339549541473,0.01162576861679554,0.09824414551258087,-0.00713537260890007,-0.06783051788806915,0.008325179107487202,0.053191810846328735,-0.234991654753685,-0.13282789289951324,0.029987314715981483,-0.0168010126799345,-0.09039047360420227,0.1427210569381714,0.011818496510386467,0.18546390533447266,-0.02323084883391857,0.0189348254352808,-0.22228114306926727,0.06705538183450699,-0.28755685687065125,0.00553171755746007,-0.14378558099269867,0.0638476312160492,0.09461075067520142,0.07892411947250366,-0.009392556734383106,-0.3624189794063568,0.2727031409740448,-0.17085422575473785,-0.05196327343583107,0.0019808446522802114,0.15574373304843903,0.15648339688777924,-0.0814511626958847,0.12279187887907028,-0.09759940952062607,-0.19485218822956085,0.08102664351463318,0.007281824946403503,-0.005133054684847593,0.042072102427482605,0.18132276833057404,0.17562605440616608,-0.15079347789287567,-0.144958958029747,-0.05936931073665619,-0.12747822701931,-0.09747885912656784,-0.16062776744365692,-0.09732067584991455,-0.10160128772258759,-0.050935667008161545,-0.08535577356815338,0.20982226729393005,-0.09664048254489899,-0.15548057854175568,0.06773597747087479,-0.043916456401348114,-0.04306696727871895,-0.05139097198843956,-0.19913816452026367,-0.0005281997146084905,-0.006769381929188967,-0.007838215678930283,0.025116711854934692,-0.18806518614292145,-0.1413055658340454,-0.032068315893411636,0.02571158856153488,0.01850139908492565,-0.11986786872148514,0.18898530304431915,0.1670939177274704,0.07955335080623627,-0.09785579890012741,0.0722656175494194,-0.03960345685482025,-0.0011438013752922416,0.012133830226957798,-0.031149636954069138,-0.012539039365947247,-0.1257605403661728,0.18593156337738037,0.0985644981265068,0.15339037775993347,-0.07951328903436661,0.12871746718883514,-0.02917669527232647,-0.054896675050258636,-0.030836813151836395,-0.18850365281105042,-0.13948331773281097,-0.15424512326717377,-0.16469967365264893,0.004941302351653576,-0.17064149677753448,-0.014904268085956573,-0.12423146516084671,0.294833779335022,-0.2288537621498108,0.10771394520998001,0.05443475395441055,0.028856167569756508,-0.12921351194381714,0.1338227093219757,0.1184433102607727,-0.21719136834144592,-0.2665713131427765,0.20258335769176483,0.056540921330451965,0.12614524364471436,0.04285814240574837,0.04901380091905594,0.08415188640356064,0.20436082780361176,0.003936339635401964,0.20884692668914795,-0.03173861280083656,0.14842461049556732,-0.18804433941841125,-0.12358439713716507,-0.07505182176828384,0.20507146418094635,-0.18105976283550262,0.06789559125900269,0.1641445904970169,-0.18889881670475006,-0.022105025127530098,-0.020793011412024498,-0.24633502960205078,-0.11999708414077759,-0.13279613852500916,0.06238357350230217,-0.024800598621368408,0.022413188591599464,-0.13844206929206848,-0.04630008339881897,-0.025859061628580093,-0.3141154646873474,0.018551521003246307,0.0028682714328169823,-0.04655271768569946,0.15851540863513947,0.21932636201381683,-0.12714281678199768,-0.04951640963554382,-0.08542248606681824,-0.15103115141391754,0.04994594305753708,0.030322356149554253,-0.03733956813812256,0.011296242475509644,0.06175787374377251,0.10344156622886658,-0.009718072600662708,-0.007324911188334227,-0.007907994091510773,0.4352530837059021,0.08551042526960373,0.07803794741630554
